FANN_FLO_2.1
num_layers=3
learning_rate=0.700000
connection_rate=1.000000
network_type=0
learning_momentum=0.000000
training_algorithm=2
train_error_function=1
train_stop_function=0
cascade_output_change_fraction=0.010000
quickprop_decay=-0.000100
quickprop_mu=1.750000
rprop_increase_factor=1.200000
rprop_decrease_factor=0.500000
rprop_delta_min=0.000000
rprop_delta_max=50.000000
rprop_delta_zero=0.100000
cascade_output_stagnation_epochs=12
cascade_candidate_change_fraction=0.010000
cascade_candidate_stagnation_epochs=12
cascade_max_out_epochs=150
cascade_min_out_epochs=50
cascade_max_cand_epochs=150
cascade_min_cand_epochs=50
cascade_num_candidate_groups=2
bit_fail_limit=3.49999994039535522461e-01
cascade_candidate_limit=1.00000000000000000000e+03
cascade_weight_multiplier=4.00000005960464477539e-01
cascade_activation_functions_count=10
cascade_activation_functions=3 5 7 8 10 11 14 15 16 17 
cascade_activation_steepnesses_count=4
cascade_activation_steepnesses=2.50000000000000000000e-01 5.00000000000000000000e-01 7.50000000000000000000e-01 1.00000000000000000000e+00 
layer_sizes=65 41 5 
scale_included=0
neurons (num_inputs, activation_function, activation_steepness)=(0, 0, 0.00000000000000000000e+00) (0, 0, 0.00000000000000000000e+00) (0, 0, 0.00000000000000000000e+00) (0, 0, 0.00000000000000000000e+00) (0, 0, 0.00000000000000000000e+00) (0, 0, 0.00000000000000000000e+00) (0, 0, 0.00000000000000000000e+00) (0, 0, 0.00000000000000000000e+00) (0, 0, 0.00000000000000000000e+00) (0, 0, 0.00000000000000000000e+00) (0, 0, 0.00000000000000000000e+00) (0, 0, 0.00000000000000000000e+00) (0, 0, 0.00000000000000000000e+00) (0, 0, 0.00000000000000000000e+00) (0, 0, 0.00000000000000000000e+00) (0, 0, 0.00000000000000000000e+00) (0, 0, 0.00000000000000000000e+00) (0, 0, 0.00000000000000000000e+00) (0, 0, 0.00000000000000000000e+00) (0, 0, 0.00000000000000000000e+00) (0, 0, 0.00000000000000000000e+00) (0, 0, 0.00000000000000000000e+00) (0, 0, 0.00000000000000000000e+00) (0, 0, 0.00000000000000000000e+00) (0, 0, 0.00000000000000000000e+00) (0, 0, 0.00000000000000000000e+00) (0, 0, 0.00000000000000000000e+00) (0, 0, 0.00000000000000000000e+00) (0, 0, 0.00000000000000000000e+00) (0, 0, 0.00000000000000000000e+00) (0, 0, 0.00000000000000000000e+00) (0, 0, 0.00000000000000000000e+00) (0, 0, 0.00000000000000000000e+00) (0, 0, 0.00000000000000000000e+00) (0, 0, 0.00000000000000000000e+00) (0, 0, 0.00000000000000000000e+00) (0, 0, 0.00000000000000000000e+00) (0, 0, 0.00000000000000000000e+00) (0, 0, 0.00000000000000000000e+00) (0, 0, 0.00000000000000000000e+00) (0, 0, 0.00000000000000000000e+00) (0, 0, 0.00000000000000000000e+00) (0, 0, 0.00000000000000000000e+00) (0, 0, 0.00000000000000000000e+00) (0, 0, 0.00000000000000000000e+00) (0, 0, 0.00000000000000000000e+00) (0, 0, 0.00000000000000000000e+00) (0, 0, 0.00000000000000000000e+00) (0, 0, 0.00000000000000000000e+00) (0, 0, 0.00000000000000000000e+00) (0, 0, 0.00000000000000000000e+00) (0, 0, 0.00000000000000000000e+00) (0, 0, 0.00000000000000000000e+00) (0, 0, 0.00000000000000000000e+00) (0, 0, 0.00000000000000000000e+00) (0, 0, 0.00000000000000000000e+00) (0, 0, 0.00000000000000000000e+00) (0, 0, 0.00000000000000000000e+00) (0, 0, 0.00000000000000000000e+00) (0, 0, 0.00000000000000000000e+00) (0, 0, 0.00000000000000000000e+00) (0, 0, 0.00000000000000000000e+00) (0, 0, 0.00000000000000000000e+00) (0, 0, 0.00000000000000000000e+00) (0, 0, 0.00000000000000000000e+00) (65, 5, 5.00000000000000000000e-01) (65, 5, 5.00000000000000000000e-01) (65, 5, 5.00000000000000000000e-01) (65, 5, 5.00000000000000000000e-01) (65, 5, 5.00000000000000000000e-01) (65, 5, 5.00000000000000000000e-01) (65, 5, 5.00000000000000000000e-01) (65, 5, 5.00000000000000000000e-01) (65, 5, 5.00000000000000000000e-01) (65, 5, 5.00000000000000000000e-01) (65, 5, 5.00000000000000000000e-01) (65, 5, 5.00000000000000000000e-01) (65, 5, 5.00000000000000000000e-01) (65, 5, 5.00000000000000000000e-01) (65, 5, 5.00000000000000000000e-01) (65, 5, 5.00000000000000000000e-01) (65, 5, 5.00000000000000000000e-01) (65, 5, 5.00000000000000000000e-01) (65, 5, 5.00000000000000000000e-01) (65, 5, 5.00000000000000000000e-01) (65, 5, 5.00000000000000000000e-01) (65, 5, 5.00000000000000000000e-01) (65, 5, 5.00000000000000000000e-01) (65, 5, 5.00000000000000000000e-01) (65, 5, 5.00000000000000000000e-01) (65, 5, 5.00000000000000000000e-01) (65, 5, 5.00000000000000000000e-01) (65, 5, 5.00000000000000000000e-01) (65, 5, 5.00000000000000000000e-01) (65, 5, 5.00000000000000000000e-01) (65, 5, 5.00000000000000000000e-01) (65, 5, 5.00000000000000000000e-01) (65, 5, 5.00000000000000000000e-01) (65, 5, 5.00000000000000000000e-01) (65, 5, 5.00000000000000000000e-01) (65, 5, 5.00000000000000000000e-01) (65, 5, 5.00000000000000000000e-01) (65, 5, 5.00000000000000000000e-01) (65, 5, 5.00000000000000000000e-01) (65, 5, 5.00000000000000000000e-01) (0, 5, 0.00000000000000000000e+00) (41, 5, 5.00000000000000000000e-01) (41, 5, 5.00000000000000000000e-01) (41, 5, 5.00000000000000000000e-01) (41, 5, 5.00000000000000000000e-01) (0, 5, 0.00000000000000000000e+00) 
connections (connected_to_neuron, weight)=(0, -3.74000396728515625000e+02) (1, -3.73946685791015625000e+02) (2, -3.73815124511718750000e+02) (3, -6.13641967773437500000e+02) (4, 6.14463195800781250000e+02) (5, 6.14993530273437500000e+02) (6, 6.14401794433593750000e+02) (7, 6.14550964355468750000e+02) (8, -3.74039703369140625000e+02) (9, -3.73888610839843750000e+02) (10, -3.73965728759765625000e+02) (11, -6.14146240234375000000e+02) (12, -1.63646942138671875000e+02) (13, 8.55038452148437500000e+02) (14, 8.55017211914062500000e+02) (15, 8.54901184082031250000e+02) (16, -3.74206207275390625000e+02) (17, -3.73956695556640625000e+02) (18, -3.73908386230468750000e+02) (19, -3.74033355712890625000e+02) (20, 3.74860839843750000000e+02) (21, 8.54993652343750000000e+02) (22, 6.14487609863281250000e+02) (23, 8.54904235839843750000e+02) (24, -3.74012390136718750000e+02) (25, -1.64376831054687500000e+02) (26, -3.73840545654296875000e+02) (27, -6.13855773925781250000e+02) (28, 1.64884735107421875000e+02) (29, 8.55030517578125000000e+02) (30, 1.64705200195312500000e+02) (31, 6.14449584960937500000e+02) (32, -3.73903625488281250000e+02) (33, -1.64466949462890625000e+02) (34, -1.64452728271484375000e+02) (35, -6.13617980957031250000e+02) (36, 8.54947753906250000000e+02) (37, 8.54984863281250000000e+02) (38, 1.64601776123046875000e+02) (39, 3.74332397460937500000e+02) (40, -1.64354675292968750000e+02) (41, -1.64520996093750000000e+02) (42, -1.64363647460937500000e+02) (43, -3.73820587158203125000e+02) (44, 6.14394287109375000000e+02) (45, 6.14485778808593750000e+02) (46, 3.74437957763671875000e+02) (47, 6.14582641601562500000e+02) (48, -1.64420043945312500000e+02) (49, -1.64506591796875000000e+02) (50, -1.64419342041015625000e+02) (51, 6.14080810546875000000e+02) (52, 1.64993438720703125000e+02) (53, 1.64610198974609375000e+02) (54, 8.55007080078125000000e+02) (55, 8.55079284667968750000e+02) (56, -1.64361755371093750000e+02) (57, -1.64484375000000000000e+02) (58, -3.73940277099609375000e+02) (59, -1.64451690673828125000e+02) (60, 8.55080139160156250000e+02) (61, 8.55030883789062500000e+02) (62, 6.14531921386718750000e+02) (63, 3.74432373046875000000e+02) (64, 3.74283172607421875000e+02) (0, -1.64047210693359375000e+02) (1, -1.64072174072265625000e+02) (2, -3.73099090576171875000e+02) (3, -1.63974365234375000000e+02) (4, 3.74177917480468750000e+02) (5, 2.90950736999511718750e+01) (6, 1.64696228027343750000e+02) (7, 6.86669082641601562500e+01) (8, -1.63976989746093750000e+02) (9, -1.64020568847656250000e+02) (10, -6.81721496582031250000e+01) (11, -6.84178466796875000000e+01) (12, -2.81118583679199218750e+01) (13, 3.74204833984375000000e+02) (14, 6.90228729248046875000e+01) (15, 1.65257446289062500000e+02) (16, -1.63979980468750000000e+02) (17, -1.64061676025390625000e+02) (18, -6.81794738769531250000e+01) (19, -3.73512420654296875000e+02) (20, 6.90857543945312500000e+01) (21, 1.65292785644531250000e+02) (22, 3.74551757812500000000e+02) (23, 1.65305816650390625000e+02) (24, -1.63875213623046875000e+02) (25, -6.82925262451171875000e+01) (26, -6.81849670410156250000e+01) (27, -1.64204498291015625000e+02) (28, 3.73904205322265625000e+02) (29, 6.90426177978515625000e+01) (30, 1.64868469238281250000e+02) (31, 6.90476074218750000000e+01) (32, -6.82258758544921875000e+01) (33, -6.83388519287109375000e+01) (34, -1.64017944335937500000e+02) (35, -1.64061737060546875000e+02) (36, 6.89129486083984375000e+01) (37, 1.65040191650390625000e+02) (38, 6.88039703369140625000e+01) (39, 1.64633544921875000000e+02) (40, -6.83463821411132812500e+01) (41, -6.82144546508789062500e+01) (42, -1.64040008544921875000e+02) (43, -1.64086914062500000000e+02) (44, 1.64769439697265625000e+02) (45, 6.87881240844726562500e+01) (46, 1.64664031982421875000e+02) (47, 1.64607696533203125000e+02) (48, -2.84195785522460937500e+01) (49, -6.83105545043945312500e+01) (50, -2.84520759582519531250e+01) (51, 2.87880287170410156250e+01) (52, 1.23155908584594726562e+01) (53, 1.64596435546875000000e+02) (54, 1.64945922851562500000e+02) (55, 1.64892700195312500000e+02) (56, -6.81911468505859375000e+01) (57, -6.83229217529296875000e+01) (58, -6.82066421508789062500e+01) (59, -1.64095886230468750000e+02) (60, 1.64755950927734375000e+02) (61, 1.64692535400390625000e+02) (62, 3.74476318359375000000e+02) (63, 1.64685363769531250000e+02) (64, 6.87601318359375000000e+01) (0, -1.09477416992187500000e+03) (1, -1.09480712890625000000e+03) (2, -1.09477832031250000000e+03) (3, -8.55012390136718750000e+02) (4, 8.55157958984375000000e+02) (5, 1.09472900390625000000e+03) (6, 1.09465991210937500000e+03) (7, 1.09476025390625000000e+03) (8, -1.09470678710937500000e+03) (9, -1.09478369140625000000e+03) (10, -1.09478918457031250000e+03) (11, -8.54899414062500000000e+02) (12, -6.14275573730468750000e+02) (13, 1.09469213867187500000e+03) (14, 1.09465722656250000000e+03) (15, 1.09479882812500000000e+03) (16, -1.09465576171875000000e+03) (17, -1.09472863769531250000e+03) (18, -1.09465917968750000000e+03) (19, -6.14282531738281250000e+02) (20, 1.09480224609375000000e+03) (21, 1.09481848144531250000e+03) (22, 1.09477856445312500000e+03) (23, 1.09463464355468750000e+03) (24, -1.09470166015625000000e+03) (25, -1.09481872558593750000e+03) (26, -1.09467346191406250000e+03) (27, -8.54998779296875000000e+02) (28, 1.09465515136718750000e+03) (29, 1.09468566894531250000e+03) (30, 1.09477844238281250000e+03) (31, 1.09471545410156250000e+03) (32, -1.09475585937500000000e+03) (33, -1.09483422851562500000e+03) (34, -1.09473681640625000000e+03) (35, -6.14614929199218750000e+02) (36, 8.55168457031250000000e+02) (37, 1.09475756835937500000e+03) (38, 1.09482373046875000000e+03) (39, 1.09465673828125000000e+03) (40, -1.09466052246093750000e+03) (41, -1.09479980468750000000e+03) (42, -1.09474243164062500000e+03) (43, -8.54935485839843750000e+02) (44, 6.14585205078125000000e+02) (45, 1.09474926757812500000e+03) (46, 1.09469238281250000000e+03) (47, 1.09470532226562500000e+03) (48, -1.09481384277343750000e+03) (49, -1.09480126953125000000e+03) (50, -1.09478356933593750000e+03) (51, 6.14130065917968750000e+02) (52, 3.73216674804687500000e+02) (53, 8.55167968750000000000e+02) (54, 1.09482299804687500000e+03) (55, 1.09478442382812500000e+03) (56, -1.09482373046875000000e+03) (57, -1.09468481445312500000e+03) (58, -1.09465429687500000000e+03) (59, -1.09480297851562500000e+03) (60, 1.09463525390625000000e+03) (61, 1.09475866699218750000e+03) (62, 1.09474694824218750000e+03) (63, 1.09471374511718750000e+03) (64, 1.09475878906250000000e+03) (0, -6.14368347167968750000e+02) (1, -3.74000183105468750000e+02) (2, -6.14359436035156250000e+02) (3, -3.74136535644531250000e+02) (4, 1.64587280273437500000e+02) (5, 1.64208465576171875000e+02) (6, 1.64606231689453125000e+02) (7, 1.64665924072265625000e+02) (8, -6.14245117187500000000e+02) (9, -6.14377868652343750000e+02) (10, -1.64430694580078125000e+02) (11, -3.74222503662109375000e+02) (12, -3.73672973632812500000e+02) (13, 1.64681091308593750000e+02) (14, 1.64235778808593750000e+02) (15, 3.73841949462890625000e+02) (16, -6.14197448730468750000e+02) (17, -3.74085968017578125000e+02) (18, -3.74034149169921875000e+02) (19, -3.74093780517578125000e+02) (20, 6.13317443847656250000e+02) (21, 3.73897369384765625000e+02) (22, 3.74364929199218750000e+02) (23, 1.64650268554687500000e+02) (24, -6.14339294433593750000e+02) (25, -3.74124908447265625000e+02) (26, -6.14182434082031250000e+02) (27, -1.64626708984375000000e+02) (28, 3.73969055175781250000e+02) (29, 1.64242370605468750000e+02) (30, 3.74265930175781250000e+02) (31, 1.64639892578125000000e+02) (32, -6.14360229492187500000e+02) (33, -3.74036407470703125000e+02) (34, -3.74069061279296875000e+02) (35, -3.74658325195312500000e+02) (36, 1.64315124511718750000e+02) (37, 3.74019531250000000000e+02) (38, 3.74295501708984375000e+02) (39, 3.74259643554687500000e+02) (40, -3.73961364746093750000e+02) (41, -3.73966674804687500000e+02) (42, -3.74013519287109375000e+02) (43, -3.74396575927734375000e+02) (44, 1.64273559570312500000e+02) (45, 1.64749206542968750000e+02) (46, 1.64682800292968750000e+02) (47, 1.64586639404296875000e+02) (48, -3.74087738037109375000e+02) (49, -3.74102294921875000000e+02) (50, -3.74079559326171875000e+02) (51, 3.73771575927734375000e+02) (52, 6.85753021240234375000e+01) (53, 1.64217254638671875000e+02) (54, 3.73846435546875000000e+02) (55, 3.73977233886718750000e+02) (56, -3.74074737548828125000e+02) (57, -3.74050933837890625000e+02) (58, -3.74040924072265625000e+02) (59, -3.73944091796875000000e+02) (60, 1.64718414306640625000e+02) (61, 6.87608108520507812500e+01) (62, 3.73978149414062500000e+02) (63, 1.64736602783203125000e+02) (64, 3.74274719238281250000e+02) (0, -1.09482067871093750000e+03) (1, -1.09469836425781250000e+03) (2, -8.54984436035156250000e+02) (3, -8.54834106445312500000e+02) (4, 8.55026245117187500000e+02) (5, 1.09476037597656250000e+03) (6, 1.09481091308593750000e+03) (7, 1.09466406250000000000e+03) (8, -1.09477893066406250000e+03) (9, -1.09481774902343750000e+03) (10, -1.09469824218750000000e+03) (11, -8.54915283203125000000e+02) (12, -6.14246704101562500000e+02) (13, 1.09465808105468750000e+03) (14, 1.09474340820312500000e+03) (15, 1.09482373046875000000e+03) (16, -1.09474719238281250000e+03) (17, -1.09482446289062500000e+03) (18, -1.09474536132812500000e+03) (19, -6.14325012207031250000e+02) (20, 1.09474047851562500000e+03) (21, 1.09466223144531250000e+03) (22, 1.09464013671875000000e+03) (23, 1.09483264160156250000e+03) (24, -1.09470446777343750000e+03) (25, -1.09482971191406250000e+03) (26, -1.09466870117187500000e+03) (27, -8.54909240722656250000e+02) (28, 1.09477880859375000000e+03) (29, 1.09478576660156250000e+03) (30, 1.09465063476562500000e+03) (31, 1.09479260253906250000e+03) (32, -1.09474707031250000000e+03) (33, -1.09477368164062500000e+03) (34, -1.09468139648437500000e+03) (35, -6.14537719726562500000e+02) (36, 1.09482104492187500000e+03) (37, 1.09476391601562500000e+03) (38, 1.09480480957031250000e+03) (39, 1.09467651367187500000e+03) (40, -1.09468823242187500000e+03) (41, -1.09472790527343750000e+03) (42, -1.09473864746093750000e+03) (43, -6.14583679199218750000e+02) (44, 6.14623107910156250000e+02) (45, 1.09463916015625000000e+03) (46, 1.09471850585937500000e+03) (47, 1.09465185546875000000e+03) (48, -1.09481970214843750000e+03) (49, -1.09466137695312500000e+03) (50, -1.09467956542968750000e+03) (51, 6.14652099609375000000e+02) (52, 6.14493713378906250000e+02) (53, 8.55133544921875000000e+02) (54, 1.09475354003906250000e+03) (55, 1.09476525878906250000e+03) (56, -1.09466918945312500000e+03) (57, -1.09474963378906250000e+03) (58, -1.09478393554687500000e+03) (59, -1.09472473144531250000e+03) (60, 1.09467053222656250000e+03) (61, 1.09470117187500000000e+03) (62, 1.09470227050781250000e+03) (63, 1.09475805664062500000e+03) (64, 1.09476196289062500000e+03) (0, -1.09481359863281250000e+03) (1, -1.09477014160156250000e+03) (2, -1.09472033691406250000e+03) (3, -6.14312072753906250000e+02) (4, 1.09466906738281250000e+03) (5, 6.14502197265625000000e+02) (6, 1.09473095703125000000e+03) (7, 1.09477563476562500000e+03) (8, -1.09478247070312500000e+03) (9, -1.09464306640625000000e+03) (10, -6.14390991210937500000e+02) (11, -8.54912231445312500000e+02) (12, -6.14223815917968750000e+02) (13, 1.09472338867187500000e+03) (14, 1.09470593261718750000e+03) (15, 1.09468286132812500000e+03) (16, -1.09479064941406250000e+03) (17, -1.09464208984375000000e+03) (18, -1.09478515625000000000e+03) (19, -8.55096618652343750000e+02) (20, 6.14604309082031250000e+02) (21, 1.09481457519531250000e+03) (22, 1.09480407714843750000e+03) (23, 1.09483068847656250000e+03) (24, -1.09480371093750000000e+03) (25, -1.09475500488281250000e+03) (26, -1.09480200195312500000e+03) (27, -1.09473706054687500000e+03) (28, 6.14640136718750000000e+02) (29, 1.09479040527343750000e+03) (30, 1.09465930175781250000e+03) (31, 1.09480249023437500000e+03) (32, -1.09481420898437500000e+03) (33, -1.09469531250000000000e+03) (34, -1.09471594238281250000e+03) (35, -1.09477954101562500000e+03) (36, 6.14588073730468750000e+02) (37, 1.09464941406250000000e+03) (38, 1.09483044433593750000e+03) (39, 1.09478173828125000000e+03) (40, -1.09482800292968750000e+03) (41, -1.09476696777343750000e+03) (42, -1.09483044433593750000e+03) (43, -1.09475268554687500000e+03) (44, 6.14502380371093750000e+02) (45, 1.09470996093750000000e+03) (46, 1.09476464843750000000e+03) (47, 1.09463452148437500000e+03) (48, -1.09476660156250000000e+03) (49, -1.09465478515625000000e+03) (50, -1.09482983398437500000e+03) (51, 3.74233093261718750000e+02) (52, 3.73131134033203125000e+02) (53, 8.55147155761718750000e+02) (54, 1.09481005859375000000e+03) (55, 1.09482482910156250000e+03) (56, -1.09478076171875000000e+03) (57, -1.09482641601562500000e+03) (58, -1.09474658203125000000e+03) (59, -8.55100097656250000000e+02) (60, 6.14783569335937500000e+02) (61, 8.55307495117187500000e+02) (62, 1.09480346679687500000e+03) (63, 1.09481860351562500000e+03) (64, 1.09468615722656250000e+03) (0, -6.14307739257812500000e+02) (1, -6.14356079101562500000e+02) (2, -3.73923553466796875000e+02) (3, -3.73968017578125000000e+02) (4, 6.14422424316406250000e+02) (5, 6.14736389160156250000e+02) (6, 6.14496215820312500000e+02) (7, 8.54991699218750000000e+02) (8, -6.14296936035156250000e+02) (9, -6.14204467773437500000e+02) (10, -3.74277893066406250000e+02) (11, -6.14221435546875000000e+02) (12, -3.74068603515625000000e+02) (13, 6.14446472167968750000e+02) (14, 8.54930664062500000000e+02) (15, 8.54989624023437500000e+02) (16, -6.14331481933593750000e+02) (17, -6.14374206542968750000e+02) (18, -6.14334899902343750000e+02) (19, -6.14056335449218750000e+02) (20, 8.55085632324218750000e+02) (21, 8.54939697265625000000e+02) (22, 8.54980529785156250000e+02) (23, 8.54893676757812500000e+02) (24, -6.14256652832031250000e+02) (25, -6.14302795410156250000e+02) (26, -6.14226562500000000000e+02) (27, -3.74101348876953125000e+02) (28, 8.54950439453125000000e+02) (29, 8.55041931152343750000e+02) (30, 8.54992065429687500000e+02) (31, 8.55037963867187500000e+02) (32, -6.14203125000000000000e+02) (33, -6.14345092773437500000e+02) (34, -6.14343750000000000000e+02) (35, -6.13869995117187500000e+02) (36, 6.14786499023437500000e+02) (37, 8.55049438476562500000e+02) (38, 8.55018981933593750000e+02) (39, 6.14429931640625000000e+02) (40, -6.14244018554687500000e+02) (41, -6.14206176757812500000e+02) (42, -6.14378723144531250000e+02) (43, -3.74166778564453125000e+02) (44, 3.74519592285156250000e+02) (45, 8.54947204589843750000e+02) (46, 8.55061889648437500000e+02) (47, 6.14499328613281250000e+02) (48, -6.14315917968750000000e+02) (49, -6.14361999511718750000e+02) (50, -6.14245178222656250000e+02) (51, 3.74649078369140625000e+02) (52, 6.14703552246093750000e+02) (53, 8.54930664062500000000e+02) (54, 8.54969604492187500000e+02) (55, 8.54911499023437500000e+02) (56, -6.14261169433593750000e+02) (57, -6.14345886230468750000e+02) (58, -1.64460113525390625000e+02) (59, -1.64338470458984375000e+02) (60, 8.54891296386718750000e+02) (61, 8.55065917968750000000e+02) (62, 8.55033447265625000000e+02) (63, 6.14581665039062500000e+02) (64, 6.14414367675781250000e+02) (0, -1.09463842773437500000e+03) (1, -1.09481274414062500000e+03) (2, -8.54857482910156250000e+02) (3, -6.14305969238281250000e+02) (4, 8.55124694824218750000e+02) (5, 1.09464868164062500000e+03) (6, 1.09474218750000000000e+03) (7, 1.09477526855468750000e+03) (8, -1.09480371093750000000e+03) (9, -1.09465441894531250000e+03) (10, -1.09464526367187500000e+03) (11, -8.54880004882812500000e+02) (12, -6.14242370605468750000e+02) (13, 1.09473571777343750000e+03) (14, 1.09480261230468750000e+03) (15, 1.09482055664062500000e+03) (16, -1.09478308105468750000e+03) (17, -1.09479028320312500000e+03) (18, -8.54958862304687500000e+02) (19, -6.14369445800781250000e+02) (20, 1.09475927734375000000e+03) (21, 1.09472705078125000000e+03) (22, 1.09466149902343750000e+03) (23, 1.09480859375000000000e+03) (24, -1.09466784667968750000e+03) (25, -1.09481176757812500000e+03) (26, -1.09465783691406250000e+03) (27, -8.54885498046875000000e+02) (28, 1.09480151367187500000e+03) (29, 1.09480541992187500000e+03) (30, 1.09480505371093750000e+03) (31, 1.09479748535156250000e+03) (32, -1.09464172363281250000e+03) (33, -1.09469238281250000000e+03) (34, -1.09471484375000000000e+03) (35, -6.14533996582031250000e+02) (36, 8.55230102539062500000e+02) (37, 1.09466162109375000000e+03) (38, 1.09471960449218750000e+03) (39, 1.09482141113281250000e+03) (40, -1.09482714843750000000e+03) (41, -1.09476000976562500000e+03) (42, -1.09475854492187500000e+03) (43, -6.14518310546875000000e+02) (44, 6.14668457031250000000e+02) (45, 1.09467858886718750000e+03) (46, 1.09478063964843750000e+03) (47, 1.09466137695312500000e+03) (48, -1.09474609375000000000e+03) (49, -1.09481811523437500000e+03) (50, -1.09471447753906250000e+03) (51, 3.74066986083984375000e+02) (52, 1.64266571044921875000e+02) (53, 8.55119995117187500000e+02) (54, 1.09482177734375000000e+03) (55, 1.09470996093750000000e+03) (56, -1.09466479492187500000e+03) (57, -1.09467041015625000000e+03) (58, -1.09481542968750000000e+03) (59, -8.54964233398437500000e+02) (60, 1.09476940917968750000e+03) (61, 1.09482409667968750000e+03) (62, 1.09473413085937500000e+03) (63, 1.09476208496093750000e+03) (64, 1.09476611328125000000e+03) (0, -6.83359909057617187500e+01) (1, -6.82832336425781250000e+01) (2, -1.63841461181640625000e+02) (3, -1.63882965087890625000e+02) (4, 2.92536888122558593750e+01) (5, 2.90443267822265625000e+01) (6, 1.64648925781250000000e+02) (7, 1.64626800537109375000e+02) (8, -6.82042846679687500000e+01) (9, -6.83413696289062500000e+01) (10, -6.83479995727539062500e+01) (11, -6.82665252685546875000e+01) (12, -2.81773185729980468750e+01) (13, 1.64629394531250000000e+02) (14, 6.89977416992187500000e+01) (15, 6.90907135009765625000e+01) (16, -6.82010726928710937500e+01) (17, -6.82585296630859375000e+01) (18, -6.82697753906250000000e+01) (19, -1.64039672851562500000e+02) (20, 1.64687652587890625000e+02) (21, 6.90752410888671875000e+01) (22, 3.74542144775390625000e+02) (23, 1.64932067871093750000e+02) (24, -1.63893066406250000000e+02) (25, -6.83477020263671875000e+01) (26, -6.81721649169921875000e+01) (27, -1.64174560546875000000e+02) (28, 3.73904083251953125000e+02) (29, 6.90249633789062500000e+01) (30, 6.90156860351562500000e+01) (31, 6.90408630371093750000e+01) (32, -6.81724624633789062500e+01) (33, -6.81657409667968750000e+01) (34, -6.81820602416992187500e+01) (35, -1.64058685302734375000e+02) (36, 1.23556337356567382812e+01) (37, 1.64910919189453125000e+02) (38, 6.88180694580078125000e+01) (39, 1.64610778808593750000e+02) (40, -6.83143310546875000000e+01) (41, -2.83938140869140625000e+01) (42, -6.83444671630859375000e+01) (43, -1.64280639648437500000e+02) (44, 2.90015945434570312500e+01) (45, 6.87406616210937500000e+01) (46, 1.64772796630859375000e+02) (47, 6.88138732910156250000e+01) (48, -2.83817481994628906250e+01) (49, -6.82920989990234375000e+01) (50, -2.85040550231933593750e+01) (51, 6.85976562500000000000e+01) (52, 2.88199501037597656250e+01) (53, 1.64734863281250000000e+02) (54, 1.65007415771484375000e+02) (55, 1.64888214111328125000e+02) (56, -6.82079620361328125000e+01) (57, -6.82486190795898437500e+01) (58, -6.81812057495117187500e+01) (59, -1.64112823486328125000e+02) (60, 1.64612579345703125000e+02) (61, 1.64670715332031250000e+02) (62, 1.64776519775390625000e+02) (63, 1.64595397949218750000e+02) (64, 6.87114334106445312500e+01) (0, -3.73998046875000000000e+02) (1, -6.14434814453125000000e+02) (2, -8.54839172363281250000e+02) (3, -6.14393554687500000000e+02) (4, 6.14499450683593750000e+02) (5, 3.74216949462890625000e+02) (6, 6.14140563964843750000e+02) (7, 6.14209289550781250000e+02) (8, -6.14419006347656250000e+02) (9, -6.14551452636718750000e+02) (10, -6.13989624023437500000e+02) (11, -6.14081237792968750000e+02) (12, -3.74253234863281250000e+02) (13, 3.74260131835937500000e+02) (14, 6.14159790039062500000e+02) (15, 6.14182617187500000000e+02) (16, -6.14434143066406250000e+02) (17, -6.13977111816406250000e+02) (18, -6.14486328125000000000e+02) (19, -3.74385742187500000000e+02) (20, 6.14158691406250000000e+02) (21, 6.14211242675781250000e+02) (22, 3.74216033935546875000e+02) (23, 6.14265380859375000000e+02) (24, -8.54901611328125000000e+02) (25, -3.74213775634765625000e+02) (26, -8.54804138183593750000e+02) (27, -6.14589538574218750000e+02) (28, 6.14182250976562500000e+02) (29, 6.14283081054687500000e+02) (30, 3.74195983886718750000e+02) (31, 3.74206756591796875000e+02) (32, -6.14469726562500000000e+02) (33, -6.14437316894531250000e+02) (34, -6.14574707031250000000e+02) (35, -6.14738220214843750000e+02) (36, 6.14201293945312500000e+02) (37, 6.14141174316406250000e+02) (38, 6.14226989746093750000e+02) (39, 6.14621215820312500000e+02) (40, -6.14528259277343750000e+02) (41, -6.14561523437500000000e+02) (42, -6.14484985351562500000e+02) (43, -3.74464660644531250000e+02) (44, 6.14203918457031250000e+02) (45, 6.14250000000000000000e+02) (46, 6.14231079101562500000e+02) (47, 6.14145019531250000000e+02) (48, -3.74247436523437500000e+02) (49, -6.14573242187500000000e+02) (50, -6.14467346191406250000e+02) (51, 3.73906372070312500000e+02) (52, 3.73863586425781250000e+02) (53, 3.74323974609375000000e+02) (54, 6.14155273437500000000e+02) (55, 6.14280639648437500000e+02) (56, -6.14556274414062500000e+02) (57, -3.74294494628906250000e+02) (58, -8.54863342285156250000e+02) (59, -6.14010986328125000000e+02) (60, 3.74238800048828125000e+02) (61, 6.14231689453125000000e+02) (62, 6.14220153808593750000e+02) (63, 3.74404693603515625000e+02) (64, 3.74383514404296875000e+02) (0, 4.14473921060562133789e-01) (1, 3.60006332397460937500e-01) (2, 4.81413722038269042969e-01) (3, 3.76997768878936767578e-01) (4, 3.97618234157562255859e-01) (5, 4.64880794286727905273e-01) (6, 3.95648747682571411133e-01) (7, 4.13206011056900024414e-01) (8, 3.98795813322067260742e-01) (9, 3.74206095933914184570e-01) (10, 3.76816302537918090820e-01) (11, 4.05162990093231201172e-01) (12, 4.15754824876785278320e-01) (13, 4.05684202909469604492e-01) (14, 4.45970207452774047852e-01) (15, 3.56133729219436645508e-01) (16, 4.37315642833709716797e-01) (17, 3.75540614128112792969e-01) (18, 4.14322137832641601562e-01) (19, 4.30597752332687377930e-01) (20, 4.24361199140548706055e-01) (21, 4.34347629547119140625e-01) (22, 3.67930501699447631836e-01) (23, 4.39576506614685058594e-01) (24, 4.29104596376419067383e-01) (25, 4.01108235120773315430e-01) (26, 3.94997537136077880859e-01) (27, 4.18467581272125244141e-01) (28, 4.18969124555587768555e-01) (29, 3.95957529544830322266e-01) (30, 3.95033478736877441406e-01) (31, 3.55526030063629150391e-01) (32, 3.52899312973022460938e-01) (33, 3.90881747007369995117e-01) (34, 4.16385591030120849609e-01) (35, 4.15380686521530151367e-01) (36, 3.91998559236526489258e-01) (37, 4.41163957118988037109e-01) (38, 3.77782940864562988281e-01) (39, 3.33044767379760742188e-01) (40, 3.46055805683135986328e-01) (41, 3.72846007347106933594e-01) (42, 3.73970150947570800781e-01) (43, 4.15591180324554443359e-01) (44, 4.17384088039398193359e-01) (45, 3.69192838668823242188e-01) (46, 3.38990569114685058594e-01) (47, 3.85396897792816162109e-01) (48, 3.29692095518112182617e-01) (49, 3.78107964992523193359e-01) (50, 3.89489114284515380859e-01) (51, 3.80593150854110717773e-01) (52, 4.13360506296157836914e-01) (53, 3.55371356010437011719e-01) (54, 3.62112462520599365234e-01) (55, 3.54727536439895629883e-01) (56, 3.68706434965133666992e-01) (57, 3.88392567634582519531e-01) (58, 4.01038765907287597656e-01) (59, 3.67434948682785034180e-01) (60, 3.68331015110015869141e-01) (61, 4.06429797410964965820e-01) (62, 3.57214361429214477539e-01) (63, 3.37891250848770141602e-01) (64, 3.00697892904281616211e-01) (0, -1.16567163467407226562e+01) (1, -1.15859594345092773438e+01) (2, -1.63879791259765625000e+02) (3, -6.81168670654296875000e+01) (4, 2.88780174255371093750e+01) (5, 1.23806619644165039062e+01) (6, 1.64636871337890625000e+02) (7, 3.74102355957031250000e+02) (8, -6.82288131713867187500e+01) (9, -6.81814041137695312500e+01) (10, -2.83732948303222656250e+01) (11, -6.81350631713867187500e+01) (12, -2.82949905395507812500e+01) (13, 3.74026428222656250000e+02) (14, 1.22570676803588867188e+01) (15, 3.74538085937500000000e+02) (16, -2.82377891540527343750e+01) (17, -1.17036066055297851562e+01) (18, -1.16866598129272460938e+01) (19, -1.64110076904296875000e+02) (20, 3.73806152343750000000e+02) (21, 2.92238311767578125000e+01) (22, 2.88327941894531250000e+01) (23, 1.64766510009765625000e+02) (24, -1.16831560134887695312e+01) (25, -1.16373786926269531250e+01) (26, -1.63904022216796875000e+02) (27, -1.64182556152343750000e+02) (28, 3.74105285644531250000e+02) (29, 6.89721984863281250000e+01) (30, 2.87142410278320312500e+01) (31, 6.85760116577148437500e+01) (32, -1.15279483795166015625e+01) (33, -6.83156356811523437500e+01) (34, -6.82926406860351562500e+01) (35, -1.64144866943359375000e+02) (36, 1.22561635971069335938e+01) (37, 1.24091062545776367188e+01) (38, 2.87889060974121093750e+01) (39, 6.87129669189453125000e+01) (40, -6.82770080566406250000e+01) (41, -6.82043533325195312500e+01) (42, -2.83223037719726562500e+01) (43, -1.64160980224609375000e+02) (44, 1.23833513259887695312e+01) (45, 2.87525215148925781250e+01) (46, 1.64658813476562500000e+02) (47, 3.74375091552734375000e+02) (48, -1.18053388595581054688e+01) (49, -6.82539596557617187500e+01) (50, -4.78709888458251953125e+00) (51, 2.88125152587890625000e+01) (52, 1.64537994384765625000e+02) (53, 1.64685119628906250000e+02) (54, 1.65056182861328125000e+02) (55, 1.65085021972656250000e+02) (56, -6.81783676147460937500e+01) (57, -6.83276977539062500000e+01) (58, -1.16339950561523437500e+01) (59, -6.83273696899414062500e+01) (60, 1.64680725097656250000e+02) (61, 1.64675384521484375000e+02) (62, 1.64741760253906250000e+02) (63, 1.64677124023437500000e+02) (64, 2.87788429260253906250e+01) (0, -3.74287353515625000000e+02) (1, -3.74160736083984375000e+02) (2, -8.54919677734375000000e+02) (3, -8.54855285644531250000e+02) (4, 6.14453186035156250000e+02) (5, 3.74176574707031250000e+02) (6, 6.14309936523437500000e+02) (7, 6.14134826660156250000e+02) (8, -3.74126373291015625000e+02) (9, -6.14462463378906250000e+02) (10, -6.13926330566406250000e+02) (11, -6.13659545898437500000e+02) (12, -6.14295837402343750000e+02) (13, 3.74140289306640625000e+02) (14, 6.14296203613281250000e+02) (15, 6.14195739746093750000e+02) (16, -3.74238311767578125000e+02) (17, -3.74215545654296875000e+02) (18, -6.14563598632812500000e+02) (19, -3.74318237304687500000e+02) (20, 6.14201171875000000000e+02) (21, 6.14304626464843750000e+02) (22, 3.74313140869140625000e+02) (23, 6.14228759765625000000e+02) (24, -6.14498229980468750000e+02) (25, -3.74243408203125000000e+02) (26, -8.54772583007812500000e+02) (27, -3.74286163330078125000e+02) (28, 6.14317871093750000000e+02) (29, 3.74149932861328125000e+02) (30, 6.14658874511718750000e+02) (31, 6.14127136230468750000e+02) (32, -6.14560913085937500000e+02) (33, -6.14448791503906250000e+02) (34, -6.14452392578125000000e+02) (35, -3.74456329345703125000e+02) (36, 3.74103027343750000000e+02) (37, 6.14232788085937500000e+02) (38, 3.74428985595703125000e+02) (39, 3.74333648681640625000e+02) (40, -6.14547607421875000000e+02) (41, -6.14510192871093750000e+02) (42, -6.14509521484375000000e+02) (43, -6.14127807617187500000e+02) (44, 6.14251831054687500000e+02) (45, 3.74375762939453125000e+02) (46, 6.14199890136718750000e+02) (47, 6.14310180664062500000e+02) (48, -3.74171630859375000000e+02) (49, -6.14481689453125000000e+02) (50, -6.14434692382812500000e+02) (51, 1.64203399658203125000e+02) (52, 1.64258758544921875000e+02) (53, 1.64770385742187500000e+02) (54, 6.14236999511718750000e+02) (55, 6.14275207519531250000e+02) (56, -3.74177581787109375000e+02) (57, -3.74181182861328125000e+02) (58, -3.74182159423828125000e+02) (59, -3.74177703857421875000e+02) (60, 1.64603363037109375000e+02) (61, 3.74263214111328125000e+02) (62, 6.14246093750000000000e+02) (63, 3.74340087890625000000e+02) (64, 3.74450042724609375000e+02) (0, -6.14344238281250000000e+02) (1, -3.74150573730468750000e+02) (2, -3.73920898437500000000e+02) (3, -3.73904724121093750000e+02) (4, 6.14572814941406250000e+02) (5, 8.55040466308593750000e+02) (6, 8.55082519531250000000e+02) (7, 6.14437927246093750000e+02) (8, -6.14378051757812500000e+02) (9, -6.14197631835937500000e+02) (10, -3.74053955078125000000e+02) (11, -6.14237182617187500000e+02) (12, -1.64254730224609375000e+02) (13, 8.55065673828125000000e+02) (14, 8.55075073242187500000e+02) (15, 8.55062011718750000000e+02) (16, -6.14277954101562500000e+02) (17, -6.14200866699218750000e+02) (18, -3.74185760498046875000e+02) (19, -3.73969573974609375000e+02) (20, 6.14695068359375000000e+02) (21, 8.54899536132812500000e+02) (22, 8.54991088867187500000e+02) (23, 8.54917846679687500000e+02) (24, -6.14270202636718750000e+02) (25, -6.14374145507812500000e+02) (26, -6.14372436523437500000e+02) (27, -3.74035888671875000000e+02) (28, 8.55038208007812500000e+02) (29, 8.54919982910156250000e+02) (30, 6.14422180175781250000e+02) (31, 6.14387512207031250000e+02) (32, -6.14275756835937500000e+02) (33, -6.14210571289062500000e+02) (34, -3.74072937011718750000e+02) (35, -3.73965515136718750000e+02) (36, 8.55025146484375000000e+02) (37, 8.55048583984375000000e+02) (38, 6.14542968750000000000e+02) (39, 6.14540527343750000000e+02) (40, -6.14238037109375000000e+02) (41, -3.74098815917968750000e+02) (42, -6.14380859375000000000e+02) (43, -3.74033843994140625000e+02) (44, 3.74424072265625000000e+02) (45, 6.14387756347656250000e+02) (46, 6.14397033691406250000e+02) (47, 6.14421508789062500000e+02) (48, -6.14200378417968750000e+02) (49, -3.74175933837890625000e+02) (50, -3.74221710205078125000e+02) (51, 6.14086242675781250000e+02) (52, 3.74243988037109375000e+02) (53, 6.14506713867187500000e+02) (54, 8.55026123046875000000e+02) (55, 8.55087768554687500000e+02) (56, -6.14254638671875000000e+02) (57, -3.74079132080078125000e+02) (58, -3.74123535156250000000e+02) (59, -1.64444122314453125000e+02) (60, 8.55079956054687500000e+02) (61, 8.55039428710937500000e+02) (62, 6.14477355957031250000e+02) (63, 6.14497680664062500000e+02) (64, 6.14522399902343750000e+02) (0, -1.09477819824218750000e+03) (1, -1.09481884765625000000e+03) (2, -1.09476318359375000000e+03) (3, -8.55085083007812500000e+02) (4, 6.14318481445312500000e+02) (5, 6.13902526855468750000e+02) (6, 8.54822082519531250000e+02) (7, 8.54760498046875000000e+02) (8, -1.09479541015625000000e+03) (9, -1.09482458496093750000e+03) (10, -6.13825805664062500000e+02) (11, -1.09479492187500000000e+03) (12, -8.54949340820312500000e+02) (13, 6.14209960937500000000e+02) (14, 6.14181579589843750000e+02) (15, 6.14230041503906250000e+02) (16, -1.09475439453125000000e+03) (17, -6.14012634277343750000e+02) (18, -1.09467797851562500000e+03) (19, -1.09463476562500000000e+03) (20, 6.13957763671875000000e+02) (21, 6.14302490234375000000e+02) (22, 6.14287414550781250000e+02) (23, 6.14186950683593750000e+02) (24, -1.09476367187500000000e+03) (25, -1.09480432128906250000e+03) (26, -1.09480371093750000000e+03) (27, -1.09481323242187500000e+03) (28, 6.13998168945312500000e+02) (29, 6.14165954589843750000e+02) (30, 6.14303649902343750000e+02) (31, 1.09481079101562500000e+03) (32, -1.09467785644531250000e+03) (33, -1.09480676269531250000e+03) (34, -1.09464208984375000000e+03) (35, -1.09470654296875000000e+03) (36, 6.13930236816406250000e+02) (37, 6.14043395996093750000e+02) (38, 6.14186584472656250000e+02) (39, 1.09472558593750000000e+03) (40, -1.09465917968750000000e+03) (41, -1.09476660156250000000e+03) (42, -1.09470361328125000000e+03) (43, -8.54834045410156250000e+02) (44, 6.14008544921875000000e+02) (45, 6.14189941406250000000e+02) (46, 6.14224975585937500000e+02) (47, 1.09464501953125000000e+03) (48, -1.09472668457031250000e+03) (49, -1.09480017089843750000e+03) (50, -6.14325012207031250000e+02) (51, 6.13889221191406250000e+02) (52, 6.85300521850585937500e+01) (53, 3.74098297119140625000e+02) (54, 6.14174499511718750000e+02) (55, 6.13938171386718750000e+02) (56, -1.09465393066406250000e+03) (57, -1.09477648925781250000e+03) (58, -1.09475292968750000000e+03) (59, -6.13753601074218750000e+02) (60, 6.14076965332031250000e+02) (61, 6.14379516601562500000e+02) (62, 6.14224365234375000000e+02) (63, 8.54804565429687500000e+02) (64, 1.09469995117187500000e+03) (0, 1.09470385742187500000e+03) (1, 1.09471789550781250000e+03) (2, 1.09475219726562500000e+03) (3, 6.14527709960937500000e+02) (4, -1.09471154785156250000e+03) (5, -6.14289245605468750000e+02) (6, -1.09482421875000000000e+03) (7, -1.09464379882812500000e+03) (8, 1.09477416992187500000e+03) (9, 1.09463952636718750000e+03) (10, 6.14467163085937500000e+02) (11, 8.54993835449218750000e+02) (12, 8.54971801757812500000e+02) (13, -1.09470251464843750000e+03) (14, -1.09482177734375000000e+03) (15, -1.09471740722656250000e+03) (16, 1.09477648925781250000e+03) (17, 1.09463452148437500000e+03) (18, 1.09474084472656250000e+03) (19, 8.55166320800781250000e+02) (20, -6.14607849121093750000e+02) (21, -1.09466772460937500000e+03) (22, -1.09476135253906250000e+03) (23, -1.09474914550781250000e+03) (24, 1.09468261718750000000e+03) (25, 1.09480810546875000000e+03) (26, 1.09471875000000000000e+03) (27, 1.09472045898437500000e+03) (28, -6.14411560058593750000e+02) (29, -8.55147399902343750000e+02) (30, -1.09468286132812500000e+03) (31, -1.09471411132812500000e+03) (32, 1.09475781250000000000e+03) (33, 1.09470373535156250000e+03) (34, 1.09478967285156250000e+03) (35, 1.09468066406250000000e+03) (36, -6.14384094238281250000e+02) (37, -1.09466906738281250000e+03) (38, -1.09479748535156250000e+03) (39, -1.09481628417968750000e+03) (40, 1.09480493164062500000e+03) (41, 1.09479260253906250000e+03) (42, 1.09475744628906250000e+03) (43, 1.09468774414062500000e+03) (44, -6.14208190917968750000e+02) (45, -1.09469885253906250000e+03) (46, -1.09466406250000000000e+03) (47, -1.09480224609375000000e+03) (48, 1.09477014160156250000e+03) (49, 1.09471118164062500000e+03) (50, 1.09475915527343750000e+03) (51, -6.13734191894531250000e+02) (52, -6.12993408203125000000e+02) (53, -6.14437500000000000000e+02) (54, -1.09478601074218750000e+03) (55, -6.14370910644531250000e+02) (56, 1.09480590820312500000e+03) (57, 1.09476708984375000000e+03) (58, 1.09481188964843750000e+03) (59, 6.14641906738281250000e+02) (60, -6.14125610351562500000e+02) (61, -8.55058349609375000000e+02) (62, -1.09469165039062500000e+03) (63, -1.09473828125000000000e+03) (64, -1.09463598632812500000e+03) (0, -1.09473645019531250000e+03) (1, -1.09469189453125000000e+03) (2, -1.09475769042968750000e+03) (3, -6.14399108886718750000e+02) (4, 1.09481384277343750000e+03) (5, 1.09472924804687500000e+03) (6, 1.09466821289062500000e+03) (7, 1.09477197265625000000e+03) (8, -1.09481652832031250000e+03) (9, -1.09474731445312500000e+03) (10, -1.09480676269531250000e+03) (11, -1.09468090820312500000e+03) (12, -6.14337890625000000000e+02) (13, 1.09469421386718750000e+03) (14, 1.09472363281250000000e+03) (15, 1.09476855468750000000e+03) (16, -1.09464990234375000000e+03) (17, -1.09478222656250000000e+03) (18, -1.09465698242187500000e+03) (19, -6.14280151367187500000e+02) (20, 1.09473510742187500000e+03) (21, 1.09470336914062500000e+03) (22, 1.09478808593750000000e+03) (23, 1.09466772460937500000e+03) (24, -1.09478784179687500000e+03) (25, -1.09465832519531250000e+03) (26, -1.09482836914062500000e+03) (27, -8.54853393554687500000e+02) (28, 1.09475317382812500000e+03) (29, 1.09473657226562500000e+03) (30, 1.09480834960937500000e+03) (31, 1.09465112304687500000e+03) (32, -1.09478979492187500000e+03) (33, -1.09478369140625000000e+03) (34, -1.09475439453125000000e+03) (35, -8.55004882812500000000e+02) (36, 6.14638366699218750000e+02) (37, 1.09474829101562500000e+03) (38, 1.09479614257812500000e+03) (39, 1.09479785156250000000e+03) (40, -1.09483349609375000000e+03) (41, -1.09464501953125000000e+03) (42, -1.09471752929687500000e+03) (43, -8.54970764160156250000e+02) (44, 6.14541992187500000000e+02) (45, 1.09464038085937500000e+03) (46, 1.09482666015625000000e+03) (47, 1.09466809082031250000e+03) (48, -1.09477612304687500000e+03) (49, -1.09466467285156250000e+03) (50, -1.09481848144531250000e+03) (51, 6.14423767089843750000e+02) (52, 1.63864959716796875000e+02) (53, 8.55142700195312500000e+02) (54, 1.09482666015625000000e+03) (55, 1.09471972656250000000e+03) (56, -1.09468859863281250000e+03) (57, -1.09463610839843750000e+03) (58, -1.09477355957031250000e+03) (59, -1.09476977539062500000e+03) (60, 8.55174316406250000000e+02) (61, 1.09466918945312500000e+03) (62, 1.09471569824218750000e+03) (63, 1.09477966308593750000e+03) (64, 1.09471984863281250000e+03) (0, 1.09479577636718750000e+03) (1, 1.09480371093750000000e+03) (2, 1.09466528320312500000e+03) (3, 1.09470947265625000000e+03) (4, -1.09470336914062500000e+03) (5, -3.73995330810546875000e+02) (6, -8.54953002929687500000e+02) (7, -1.09471411132812500000e+03) (8, 1.09474560546875000000e+03) (9, 1.09476855468750000000e+03) (10, 6.14515441894531250000e+02) (11, 3.74973876953125000000e+02) (12, 8.55015380859375000000e+02) (13, -6.14632080078125000000e+02) (14, -6.14122924804687500000e+02) (15, -8.54932739257812500000e+02) (16, 1.09465356445312500000e+03) (17, 6.14799926757812500000e+02) (18, 1.09476940917968750000e+03) (19, 1.09482324218750000000e+03) (20, -6.13967773437500000000e+02) (21, -6.14614990234375000000e+02) (22, -8.54894409179687500000e+02) (23, -8.54904113769531250000e+02) (24, 1.09471545410156250000e+03) (25, 1.09483349609375000000e+03) (26, 1.09465991210937500000e+03) (27, 1.09475024414062500000e+03) (28, -6.14013854980468750000e+02) (29, -6.14127624511718750000e+02) (30, -8.55186157226562500000e+02) (31, -1.09479260253906250000e+03) (32, 1.09477441406250000000e+03) (33, 1.09466650390625000000e+03) (34, 1.09475134277343750000e+03) (35, 1.09470532226562500000e+03) (36, -6.14067871093750000000e+02) (37, -6.14105407714843750000e+02) (38, -6.14106994628906250000e+02) (39, -1.09469689941406250000e+03) (40, 1.09476147460937500000e+03) (41, 8.55355468750000000000e+02) (42, 1.09468908691406250000e+03) (43, 1.09468798828125000000e+03) (44, -6.14134399414062500000e+02) (45, -6.14268249511718750000e+02) (46, -6.14485534667968750000e+02) (47, -6.14452270507812500000e+02) (48, 8.55359008789062500000e+02) (49, 1.09471911621093750000e+03) (50, 8.55366455078125000000e+02) (51, -6.13570129394531250000e+02) (52, -3.73196990966796875000e+02) (53, -6.14528930664062500000e+02) (54, -6.14619567871093750000e+02) (55, -6.14112365722656250000e+02) (56, 1.09473986816406250000e+03) (57, 1.09467553710937500000e+03) (58, 6.14721313476562500000e+02) (59, 6.14531921386718750000e+02) (60, -3.74177856445312500000e+02) (61, -6.14532287597656250000e+02) (62, -6.14607543945312500000e+02) (63, -8.55035644531250000000e+02) (64, -1.09469934082031250000e+03) (0, -1.09468981933593750000e+03) (1, -1.09481176757812500000e+03) (2, -1.09467285156250000000e+03) (3, -6.14324951171875000000e+02) (4, 1.09464843750000000000e+03) (5, 6.14445007324218750000e+02) (6, 1.09469897460937500000e+03) (7, 1.09480908203125000000e+03) (8, -1.09468066406250000000e+03) (9, -1.09471630859375000000e+03) (10, -6.14323852539062500000e+02) (11, -8.55381103515625000000e+02) (12, -6.14327514648437500000e+02) (13, 1.09475598144531250000e+03) (14, 1.09478234863281250000e+03) (15, 1.09478686523437500000e+03) (16, -1.09474108886718750000e+03) (17, -1.09479565429687500000e+03) (18, -1.09477709960937500000e+03) (19, -8.54901367187500000000e+02) (20, 6.14547241210937500000e+02) (21, 1.09467761230468750000e+03) (22, 1.09473950195312500000e+03) (23, 1.09472998046875000000e+03) (24, -1.09468945312500000000e+03) (25, -1.09474340820312500000e+03) (26, -1.09472705078125000000e+03) (27, -8.54921142578125000000e+02) (28, 6.14611572265625000000e+02) (29, 1.09469348144531250000e+03) (30, 1.09481738281250000000e+03) (31, 1.09469775390625000000e+03) (32, -1.09475268554687500000e+03) (33, -1.09468994140625000000e+03) (34, -1.09483361816406250000e+03) (35, -1.09473876953125000000e+03) (36, 6.14536315917968750000e+02) (37, 1.09469982910156250000e+03) (38, 1.09470483398437500000e+03) (39, 1.09483154296875000000e+03) (40, -1.09465100097656250000e+03) (41, -1.09482543945312500000e+03) (42, -1.09465356445312500000e+03) (43, -1.09478320312500000000e+03) (44, 6.14476440429687500000e+02) (45, 1.09476318359375000000e+03) (46, 1.09463793945312500000e+03) (47, 1.09465820312500000000e+03) (48, -1.09466687011718750000e+03) (49, -1.09477355957031250000e+03) (50, -1.09481103515625000000e+03) (51, 6.13963684082031250000e+02) (52, 3.73294738769531250000e+02) (53, 8.55101440429687500000e+02) (54, 1.09475195312500000000e+03) (55, 1.09468334960937500000e+03) (56, -1.09481494140625000000e+03) (57, -1.09480957031250000000e+03) (58, -1.09473754882812500000e+03) (59, -8.54962707519531250000e+02) (60, 6.14576660156250000000e+02) (61, 8.55274475097656250000e+02) (62, 1.09463598632812500000e+03) (63, 1.09479992675781250000e+03) (64, 1.09465856933593750000e+03) (0, -6.14332824707031250000e+02) (1, -3.73995452880859375000e+02) (2, -1.09476672363281250000e+03) (3, -1.64459411621093750000e+02) (4, 1.64425750732421875000e+02) (5, 6.85494384765625000000e+01) (6, 1.64515777587890625000e+02) (7, 1.64605072021484375000e+02) (8, -3.74010986328125000000e+02) (9, -1.09473205566406250000e+03) (10, -3.73985687255859375000e+02) (11, -3.73431823730468750000e+02) (12, -6.14025939941406250000e+02) (13, 6.85793304443359375000e+01) (14, 6.86266403198242187500e+01) (15, 1.64631317138671875000e+02) (16, -6.14424987792968750000e+02) (17, -6.14171264648437500000e+02) (18, -1.09476367187500000000e+03) (19, -6.16076538085937500000e+02) (20, 3.74099914550781250000e+02) (21, 1.64584289550781250000e+02) (22, 1.64530670166015625000e+02) (23, 1.64570861816406250000e+02) (24, -6.14526550292968750000e+02) (25, -3.74052276611328125000e+02) (26, -8.54997253417968750000e+02) (27, -3.75047271728515625000e+02) (28, 3.74024414062500000000e+02) (29, 1.64449829101562500000e+02) (30, 1.64584991455078125000e+02) (31, 1.64472991943359375000e+02) (32, -3.74039794921875000000e+02) (33, -6.14354980468750000000e+02) (34, -6.14466857910156250000e+02) (35, -3.74972381591796875000e+02) (36, 1.64517486572265625000e+02) (37, 1.64592041015625000000e+02) (38, 1.64553527832031250000e+02) (39, 1.64563140869140625000e+02) (40, -3.74026824951171875000e+02) (41, -3.73896728515625000000e+02) (42, -3.73983612060546875000e+02) (43, -3.74331481933593750000e+02) (44, 1.64401702880859375000e+02) (45, 1.64479644775390625000e+02) (46, 1.64567108154296875000e+02) (47, 3.74264617919921875000e+02) (48, -3.73877563476562500000e+02) (49, -6.14161926269531250000e+02) (50, -3.74037322998046875000e+02) (51, 6.83514175415039062500e+01) (52, 3.73642547607421875000e+02) (53, 6.85700683593750000000e+01) (54, 1.64631439208984375000e+02) (55, 3.74201416015625000000e+02) (56, -6.14453247070312500000e+02) (57, -3.73899658203125000000e+02) (58, -1.09482861328125000000e+03) (59, -3.73960815429687500000e+02) (60, 6.85972595214843750000e+01) (61, 1.64590789794921875000e+02) (62, 1.64568847656250000000e+02) (63, 1.64594085693359375000e+02) (64, 3.74206176757812500000e+02) (0, -1.09465393066406250000e+03) (1, -1.09475646972656250000e+03) (2, -8.54861694335937500000e+02) (3, -6.14354431152343750000e+02) (4, 8.55139892578125000000e+02) (5, 1.09470019531250000000e+03) (6, 1.09477221679687500000e+03) (7, 1.09476123046875000000e+03) (8, -1.09469555664062500000e+03) (9, -1.09476074218750000000e+03) (10, -1.09465283203125000000e+03) (11, -8.54875000000000000000e+02) (12, -1.64370422363281250000e+02) (13, 1.09478869628906250000e+03) (14, 1.09476745605468750000e+03) (15, 1.09478393554687500000e+03) (16, -1.09466076660156250000e+03) (17, -1.09464074707031250000e+03) (18, -8.54986450195312500000e+02) (19, -6.14403381347656250000e+02) (20, 1.09479492187500000000e+03) (21, 1.09478649902343750000e+03) (22, 1.09478332519531250000e+03) (23, 1.09475195312500000000e+03) (24, -1.09467651367187500000e+03) (25, -1.09478967285156250000e+03) (26, -1.09480419921875000000e+03) (27, -8.54944824218750000000e+02) (28, 1.09478344726562500000e+03) (29, 1.09479406738281250000e+03) (30, 1.09483288574218750000e+03) (31, 1.09476391601562500000e+03) (32, -1.09479675292968750000e+03) (33, -1.09466870117187500000e+03) (34, -1.09479687500000000000e+03) (35, -6.14390625000000000000e+02) (36, 8.55105285644531250000e+02) (37, 1.09480981445312500000e+03) (38, 1.09476586914062500000e+03) (39, 1.09480480957031250000e+03) (40, -1.09478540039062500000e+03) (41, -1.09472143554687500000e+03) (42, -1.09471008300781250000e+03) (43, -6.14653198242187500000e+02) (44, 6.14560119628906250000e+02) (45, 1.09469189453125000000e+03) (46, 1.09480908203125000000e+03) (47, 1.09467529296875000000e+03) (48, -1.09478332519531250000e+03) (49, -1.09481713867187500000e+03) (50, -1.09473449707031250000e+03) (51, 6.14504455566406250000e+02) (52, 6.14434204101562500000e+02) (53, 8.55021850585937500000e+02) (54, 1.09476354980468750000e+03) (55, 1.09476159667968750000e+03) (56, -1.09474084472656250000e+03) (57, -1.09467517089843750000e+03) (58, -1.09482312011718750000e+03) (59, -1.09479174804687500000e+03) (60, 8.55192749023437500000e+02) (61, 1.09464416503906250000e+03) (62, 1.09480664062500000000e+03) (63, 1.09479101562500000000e+03) (64, 1.09480981445312500000e+03) (0, 1.09464416503906250000e+03) (1, 1.09479565429687500000e+03) (2, 8.54655944824218750000e+02) (3, 8.55158081054687500000e+02) (4, -1.09474169921875000000e+03) (5, -6.14120910644531250000e+02) (6, -1.09480029296875000000e+03) (7, -1.09482873535156250000e+03) (8, 1.09473608398437500000e+03) (9, 1.09469384765625000000e+03) (10, 6.14418884277343750000e+02) (11, 8.54808105468750000000e+02) (12, 8.54683105468750000000e+02) (13, -1.09472070312500000000e+03) (14, -1.09482421875000000000e+03) (15, -1.09478308105468750000e+03) (16, 1.09464819335937500000e+03) (17, 1.09465625000000000000e+03) (18, 1.09465515136718750000e+03) (19, 8.54711547851562500000e+02) (20, -6.14484252929687500000e+02) (21, -1.09468652343750000000e+03) (22, -1.09467822265625000000e+03) (23, -1.09472412109375000000e+03) (24, 1.09479370117187500000e+03) (25, 1.09483312988281250000e+03) (26, 8.54678161621093750000e+02) (27, 8.54817993164062500000e+02) (28, -8.54858093261718750000e+02) (29, -8.55001586914062500000e+02) (30, -1.09468994140625000000e+03) (31, -1.09465380859375000000e+03) (32, 1.09478149414062500000e+03) (33, 1.09478588867187500000e+03) (34, 1.09480004882812500000e+03) (35, 8.54688720703125000000e+02) (36, -8.54900146484375000000e+02) (37, -1.09463452148437500000e+03) (38, -1.09478906250000000000e+03) (39, -1.09480395507812500000e+03) (40, 1.09469360351562500000e+03) (41, 1.09475268554687500000e+03) (42, 1.09482409667968750000e+03) (43, 8.54742309570312500000e+02) (44, -6.14062194824218750000e+02) (45, -1.09463452148437500000e+03) (46, -1.09468969726562500000e+03) (47, -1.09478857421875000000e+03) (48, 1.09465612792968750000e+03) (49, 1.09479980468750000000e+03) (50, 1.09474279785156250000e+03) (51, -6.13724609375000000000e+02) (52, -6.12719116210937500000e+02) (53, -6.14570739746093750000e+02) (54, -1.09475146484375000000e+03) (55, -6.14389953613281250000e+02) (56, 1.09469763183593750000e+03) (57, 1.09474658203125000000e+03) (58, 1.09467590332031250000e+03) (59, 6.14653686523437500000e+02) (60, -6.14200317382812500000e+02) (61, -8.55001403808593750000e+02) (62, -1.09481970214843750000e+03) (63, -1.09478942871093750000e+03) (64, -1.09469702148437500000e+03) (0, -6.14394836425781250000e+02) (1, -6.14490539550781250000e+02) (2, -8.54902832031250000000e+02) (3, -6.14395019531250000000e+02) (4, 6.14517333984375000000e+02) (5, 6.14214660644531250000e+02) (6, 6.14621093750000000000e+02) (7, 6.14166320800781250000e+02) (8, -3.74210327148437500000e+02) (9, -6.14442504882812500000e+02) (10, -3.74216217041015625000e+02) (11, -6.14045654296875000000e+02) (12, -1.64713714599609375000e+02) (13, 6.14244262695312500000e+02) (14, 6.14225891113281250000e+02) (15, 6.14160705566406250000e+02) (16, -6.14540588378906250000e+02) (17, -3.74216003417968750000e+02) (18, -6.14419250488281250000e+02) (19, -3.74344268798828125000e+02) (20, 6.14281555175781250000e+02) (21, 6.14146423339843750000e+02) (22, 3.74350250244140625000e+02) (23, 6.14193664550781250000e+02) (24, -6.14505310058593750000e+02) (25, -3.74100158691406250000e+02) (26, -8.54795288085937500000e+02) (27, -6.14416381835937500000e+02) (28, 6.14129150390625000000e+02) (29, 6.14136657714843750000e+02) (30, 3.74381164550781250000e+02) (31, 6.14309570312500000000e+02) (32, -6.14471862792968750000e+02) (33, -6.14515747070312500000e+02) (34, -6.14403442382812500000e+02) (35, -6.14438842773437500000e+02) (36, 6.14274108886718750000e+02) (37, 6.14129211425781250000e+02) (38, 3.74413665771484375000e+02) (39, 6.14624145507812500000e+02) (40, -6.14431274414062500000e+02) (41, -6.14412963867187500000e+02) (42, -6.14446533203125000000e+02) (43, -6.14110534667968750000e+02) (44, 6.14206481933593750000e+02) (45, 3.74368530273437500000e+02) (46, 6.14182067871093750000e+02) (47, 6.14241149902343750000e+02) (48, -3.74179321289062500000e+02) (49, -6.14555175781250000000e+02) (50, -6.14552917480468750000e+02) (51, 3.73897369384765625000e+02) (52, 1.64394531250000000000e+02) (53, 6.14302673339843750000e+02) (54, 6.14274597167968750000e+02) (55, 6.14236389160156250000e+02) (56, -6.14393981933593750000e+02) (57, -3.74166320800781250000e+02) (58, -8.54794616699218750000e+02) (59, -3.74104217529296875000e+02) (60, 3.74220550537109375000e+02) (61, 6.88922882080078125000e+01) (62, 6.14302001953125000000e+02) (63, 3.74384246826171875000e+02) (64, 3.74359008789062500000e+02) (0, 1.09479028320312500000e+03) (1, 1.09472021484375000000e+03) (2, 1.09481774902343750000e+03) (3, 6.14659973144531250000e+02) (4, -1.09466674804687500000e+03) (5, -6.14272460937500000000e+02) (6, -1.09472326660156250000e+03) (7, -1.09470446777343750000e+03) (8, 1.09478894042968750000e+03) (9, 1.09476684570312500000e+03) (10, 6.14364379882812500000e+02) (11, 8.54840209960937500000e+02) (12, 8.54641601562500000000e+02) (13, -1.09469274902343750000e+03) (14, -1.09472583007812500000e+03) (15, -1.09481774902343750000e+03) (16, 1.09479833984375000000e+03) (17, 1.09482385253906250000e+03) (18, 1.09469958496093750000e+03) (19, 1.09478308105468750000e+03) (20, -8.54882812500000000000e+02) (21, -1.09465087890625000000e+03) (22, -1.09470446777343750000e+03) (23, -1.09475793457031250000e+03) (24, 1.09479235839843750000e+03) (25, 1.09475683593750000000e+03) (26, 1.09465991210937500000e+03) (27, 1.09476000976562500000e+03) (28, -6.14191833496093750000e+02) (29, -8.55109497070312500000e+02) (30, -1.09468164062500000000e+03) (31, -1.09477209472656250000e+03) (32, 1.09479809570312500000e+03) (33, 1.09477050781250000000e+03) (34, 1.09466394042968750000e+03) (35, 1.09476586914062500000e+03) (36, -6.14300537109375000000e+02) (37, -6.14321838378906250000e+02) (38, -1.09477319335937500000e+03) (39, -1.09471801757812500000e+03) (40, 1.09470751953125000000e+03) (41, 1.09471411132812500000e+03) (42, 1.09474206542968750000e+03) (43, 1.09470410156250000000e+03) (44, -6.14072875976562500000e+02) (45, -1.09481823730468750000e+03) (46, -1.09474804687500000000e+03) (47, -1.09464904785156250000e+03) (48, 1.09464013671875000000e+03) (49, 1.09478588867187500000e+03) (50, 1.09476843261718750000e+03) (51, -6.13745483398437500000e+02) (52, -6.13105712890625000000e+02) (53, -8.54964965820312500000e+02) (54, -1.09480615234375000000e+03) (55, -6.14369323730468750000e+02) (56, 1.09482080078125000000e+03) (57, 1.09468823242187500000e+03) (58, 1.09465319824218750000e+03) (59, 6.14712402343750000000e+02) (60, -6.14411376953125000000e+02) (61, -8.55015869140625000000e+02) (62, -1.09467919921875000000e+03) (63, -1.09473901367187500000e+03) (64, -1.09472680664062500000e+03) (0, -1.09464978027343750000e+03) (1, -1.09480761718750000000e+03) (2, -8.54959411621093750000e+02) (3, -8.54903686523437500000e+02) (4, 8.55061096191406250000e+02) (5, 8.54834960937500000000e+02) (6, 1.09483276367187500000e+03) (7, 1.09480224609375000000e+03) (8, -1.09474072265625000000e+03) (9, -1.09476635742187500000e+03) (10, -1.09464514160156250000e+03) (11, -8.54859130859375000000e+02) (12, -6.14240844726562500000e+02) (13, 1.09480908203125000000e+03) (14, 1.09474987792968750000e+03) (15, 1.09474035644531250000e+03) (16, -1.09472583007812500000e+03) (17, -1.09476708984375000000e+03) (18, -8.54987915039062500000e+02) (19, -6.14289855957031250000e+02) (20, 8.54744506835937500000e+02) (21, 1.09476855468750000000e+03) (22, 1.09479345703125000000e+03) (23, 1.09478369140625000000e+03) (24, -1.09468164062500000000e+03) (25, -1.09478259277343750000e+03) (26, -1.09475341796875000000e+03) (27, -8.54904602050781250000e+02) (28, 8.54655944824218750000e+02) (29, 8.54825439453125000000e+02) (30, 1.09466650390625000000e+03) (31, 1.09482604980468750000e+03) (32, -1.09483117675781250000e+03) (33, -1.09473291015625000000e+03) (34, -1.09471752929687500000e+03) (35, -8.54937561035156250000e+02) (36, 8.55161376953125000000e+02) (37, 1.09474963378906250000e+03) (38, 1.09469372558593750000e+03) (39, 1.09481567382812500000e+03) (40, -1.09465112304687500000e+03) (41, -1.09478588867187500000e+03) (42, -1.09474340820312500000e+03) (43, -6.14540771484375000000e+02) (44, 8.54672058105468750000e+02) (45, 1.09464086914062500000e+03) (46, 1.09467797851562500000e+03) (47, 1.09476611328125000000e+03) (48, -1.09476074218750000000e+03) (49, -1.09474975585937500000e+03) (50, -1.09473010253906250000e+03) (51, 3.73983001708984375000e+02) (52, 6.82824707031250000000e+01) (53, 8.55036315917968750000e+02) (54, 1.09475292968750000000e+03) (55, 1.09480603027343750000e+03) (56, -1.09471923828125000000e+03) (57, -1.09463476562500000000e+03) (58, -1.09473840332031250000e+03) (59, -8.54978881835937500000e+02) (60, 1.09481042480468750000e+03) (61, 1.09476245117187500000e+03) (62, 1.09474804687500000000e+03) (63, 1.09481372070312500000e+03) (64, 1.09466406250000000000e+03) (0, -3.74122100830078125000e+02) (1, -3.73901367187500000000e+02) (2, -3.73854919433593750000e+02) (3, -3.73826324462890625000e+02) (4, 3.74461853027343750000e+02) (5, 3.74569610595703125000e+02) (6, 6.14516296386718750000e+02) (7, 8.55067504882812500000e+02) (8, -3.73782745361328125000e+02) (9, -3.74003875732421875000e+02) (10, -3.73970489501953125000e+02) (11, -3.74043243408203125000e+02) (12, -1.64223937988281250000e+02) (13, 8.55022338867187500000e+02) (14, 8.54958496093750000000e+02) (15, 8.55083923339843750000e+02) (16, -6.14357543945312500000e+02) (17, -3.73933319091796875000e+02) (18, -3.73958404541015625000e+02) (19, -3.73969573974609375000e+02) (20, 6.14739013671875000000e+02) (21, 8.55074218750000000000e+02) (22, 8.54905151367187500000e+02) (23, 8.55045898437500000000e+02) (24, -3.74071411132812500000e+02) (25, -1.64395751953125000000e+02) (26, -3.73839111328125000000e+02) (27, -6.14289001464843750000e+02) (28, 3.74723907470703125000e+02) (29, 8.55001281738281250000e+02) (30, 3.74313110351562500000e+02) (31, 8.54971435546875000000e+02) (32, -6.14212219238281250000e+02) (33, -1.64377990722656250000e+02) (34, -3.73943847656250000000e+02) (35, -6.13547851562500000000e+02) (36, 3.74525604248046875000e+02) (37, 8.55046264648437500000e+02) (38, 8.54980468750000000000e+02) (39, 6.14430969238281250000e+02) (40, -1.64510009765625000000e+02) (41, -1.64440856933593750000e+02) (42, -1.64494506835937500000e+02) (43, -1.64399719238281250000e+02) (44, 3.74333557128906250000e+02) (45, 6.14496276855468750000e+02) (46, 3.74403503417968750000e+02) (47, 6.14451354980468750000e+02) (48, -1.64386199951171875000e+02) (49, -1.64391082763671875000e+02) (50, -1.64368865966796875000e+02) (51, 6.14083129882812500000e+02) (52, 3.74576904296875000000e+02) (53, 8.55070251464843750000e+02) (54, 8.54951049804687500000e+02) (55, 8.54898437500000000000e+02) (56, -3.74119567871093750000e+02) (57, -1.64338928222656250000e+02) (58, -3.73953369140625000000e+02) (59, -1.64313323974609375000e+02) (60, 8.54996337890625000000e+02) (61, 8.54946533203125000000e+02) (62, 8.54942871093750000000e+02) (63, 3.74364685058593750000e+02) (64, 3.74287841796875000000e+02) (0, 1.40699967741966247559e-01) (1, 1.34672522544860839844e-01) (2, -1.62704098224639892578e+00) (3, 2.75765806436538696289e-01) (4, 2.37484693527221679688e+00) (5, 2.30999374389648437500e+00) (6, 7.10200369358062744141e-01) (7, 2.49883842468261718750e+00) (8, 1.61134988069534301758e-01) (9, -1.43929827213287353516e+00) (10, 1.45805120468139648438e-01) (11, -1.59990206360816955566e-01) (12, 3.94267946481704711914e-01) (13, 2.35484123229980468750e+00) (14, 2.31869363784790039062e+00) (15, 1.42938661575317382812e+00) (16, -4.55636548995971679688e+00) (17, 8.73671695590019226074e-02) (18, 5.43493852019309997559e-02) (19, -2.87406742572784423828e-02) (20, 1.29180097579956054688e+00) (21, 7.41184294223785400391e-01) (22, 4.21380400657653808594e-01) (23, 5.61702251434326171875e-01) (24, -4.47697353363037109375e+00) (25, -4.45221042633056640625e+00) (26, -4.86305147409439086914e-01) (27, -6.47630214691162109375e-01) (28, 7.03594386577606201172e-01) (29, 4.27406013011932373047e-01) (30, 1.23393237590789794922e+00) (31, 5.34343242645263671875e+00) (32, 1.56879544258117675781e-01) (33, -6.16702437400817871094e-02) (34, -8.83392989635467529297e-03) (35, -1.56901133060455322266e+00) (36, 2.39946842193603515625e+00) (37, 1.21664738655090332031e+00) (38, 7.39648103713989257812e-01) (39, 2.33889865875244140625e+00) (40, -3.98482531309127807617e-01) (41, 5.21124228835105895996e-02) (42, -5.12784004211425781250e-01) (43, -1.67939102649688720703e+00) (44, 8.14436316490173339844e-01) (45, 2.40708065032958984375e+00) (46, 1.22308909893035888672e+00) (47, 4.74160015583038330078e-01) (48, -7.71453976631164550781e-03) (49, 1.21948592364788055420e-01) (50, -1.67962467670440673828e+00) (51, 5.16301870346069335938e-01) (52, 4.97784018516540527344e-01) (53, 5.12971639633178710938e-01) (54, 1.22855043411254882812e+00) (55, 4.89596784114837646484e-01) (56, -5.47803640365600585938e-02) (57, 1.64009571075439453125e-01) (58, -1.63064372539520263672e+00) (59, -8.34099650382995605469e-02) (60, 6.85839354991912841797e-01) (61, 1.21210289001464843750e+00) (62, 2.41071128845214843750e+00) (63, 8.08168768882751464844e-01) (64, 4.27722334861755371094e-01) (0, 1.09482604980468750000e+03) (1, 1.09467358398437500000e+03) (2, 1.09463977050781250000e+03) (3, 8.55119628906250000000e+02) (4, -1.09474047851562500000e+03) (5, -1.09480090332031250000e+03) (6, -1.09473498535156250000e+03) (7, -1.09467114257812500000e+03) (8, 1.09475634765625000000e+03) (9, 1.09481359863281250000e+03) (10, 1.09474584960937500000e+03) (11, 1.09465270996093750000e+03) (12, 6.14516113281250000000e+02) (13, -1.09473107910156250000e+03) (14, -1.09480651855468750000e+03) (15, -1.09475781250000000000e+03) (16, 1.09475488281250000000e+03) (17, 1.09464709472656250000e+03) (18, 1.09466625976562500000e+03) (19, 6.14575012207031250000e+02) (20, -1.09466674804687500000e+03) (21, -1.09482092285156250000e+03) (22, -1.09467443847656250000e+03) (23, -1.09483386230468750000e+03) (24, 1.09471337890625000000e+03) (25, 1.09464221191406250000e+03) (26, 1.09463586425781250000e+03) (27, 8.55014770507812500000e+02) (28, -1.09472656250000000000e+03) (29, -1.09466040039062500000e+03) (30, -1.09466430664062500000e+03) (31, -1.09473498535156250000e+03) (32, 1.09464770507812500000e+03) (33, 1.09480993652343750000e+03) (34, 1.09468066406250000000e+03) (35, 8.55080139160156250000e+02) (36, -6.14453369140625000000e+02) (37, -1.09468872070312500000e+03) (38, -1.09476391601562500000e+03) (39, -1.09470336914062500000e+03) (40, 1.09475927734375000000e+03) (41, 1.09481628417968750000e+03) (42, 1.09478369140625000000e+03) (43, 8.55026672363281250000e+02) (44, -6.14377258300781250000e+02) (45, -1.09465722656250000000e+03) (46, -1.09470410156250000000e+03) (47, -1.09482873535156250000e+03) (48, 1.09482421875000000000e+03) (49, 1.09479663085937500000e+03) (50, 1.09472229003906250000e+03) (51, -6.13503356933593750000e+02) (52, -3.72745880126953125000e+02) (53, -8.54981140136718750000e+02) (54, -1.09467626953125000000e+03) (55, -1.09477990722656250000e+03) (56, 1.09469006347656250000e+03) (57, 1.09479394531250000000e+03) (58, 1.09473071289062500000e+03) (59, 1.09479785156250000000e+03) (60, -1.09470080566406250000e+03) (61, -1.09476794433593750000e+03) (62, -1.09477148437500000000e+03) (63, -1.09468750000000000000e+03) (64, -1.09479248046875000000e+03) (0, -1.16468896865844726562e+01) (1, -4.70215511322021484375e+00) (2, -6.79720001220703125000e+01) (3, -2.79884185791015625000e+01) (4, 1.23680486679077148438e+01) (5, 1.23761339187622070312e+01) (6, 6.91085052490234375000e+01) (7, 2.87652740478515625000e+01) (8, -1.16247138977050781250e+01) (9, -6.79896621704101562500e+01) (10, -4.56463003158569335938e+00) (11, -1.15177516937255859375e+01) (12, 1.56544804573059082031e-01) (13, 2.89596595764160156250e+01) (14, 2.90676040649414062500e+01) (15, 2.89308395385742187500e+01) (16, -4.68218040466308593750e+00) (17, -4.70028448104858398438e+00) (18, -1.16229896545410156250e+01) (19, -1.16590414047241210938e+01) (20, 2.88465042114257812500e+01) (21, 1.24984865188598632812e+01) (22, 1.23670225143432617188e+01) (23, 1.25162706375122070312e+01) (24, -4.71508312225341796875e+00) (25, -1.15723009109497070312e+01) (26, -6.79157333374023437500e+01) (27, -2.82555274963378906250e+01) (28, 2.90614433288574218750e+01) (29, 1.23967905044555664062e+01) (30, 5.54108524322509765625e+00) (31, 6.85933685302734375000e+01) (32, -1.16478586196899414062e+01) (33, -2.80797729492187500000e+01) (34, -1.15453968048095703125e+01) (35, -2.81622734069824218750e+01) (36, 2.92126197814941406250e+01) (37, 5.53552150726318359375e+00) (38, 2.87979545593261718750e+01) (39, 2.87837295532226562500e+01) (40, -1.15641431808471679688e+01) (41, -4.66112184524536132812e+00) (42, -4.73389101028442382812e+00) (43, -1.16155509948730468750e+01) (44, 2.46765661239624023438e+00) (45, 2.87905921936035156250e+01) (46, 6.87275085449218750000e+01) (47, 2.86717872619628906250e+01) (48, -1.15684375762939453125e+01) (49, -1.15734691619873046875e+01) (50, -1.92753231525421142578e+00) (51, 1.21820497512817382812e+01) (52, 5.36902332305908203125e+00) (53, 1.64729400634765625000e+02) (54, 2.91444854736328125000e+01) (55, 5.54557037353515625000e+00) (56, -2.83079452514648437500e+01) (57, -4.70758247375488281250e+00) (58, -1.16151962280273437500e+01) (59, -1.16319303512573242188e+01) (60, 6.87828979492187500000e+01) (61, 6.92438812255859375000e+01) (62, 2.86843452453613281250e+01) (63, 2.87037048339843750000e+01) (64, 2.87400741577148437500e+01) (0, -3.74140991210937500000e+02) (1, -3.74067871093750000000e+02) (2, -1.64363342285156250000e+02) (3, -1.64376403808593750000e+02) (4, 6.14418640136718750000e+02) (5, 1.64672485351562500000e+02) (6, 3.74386077880859375000e+02) (7, 3.74378387451171875000e+02) (8, -3.74112548828125000000e+02) (9, -3.74035064697265625000e+02) (10, -1.64219024658203125000e+02) (11, -3.73433197021484375000e+02) (12, -6.12923583984375000000e+02) (13, 6.14489990234375000000e+02) (14, 6.14554199218750000000e+02) (15, 6.14576232910156250000e+02) (16, -3.74111755371093750000e+02) (17, -3.73991638183593750000e+02) (18, -3.74032867431640625000e+02) (19, -3.73513824462890625000e+02) (20, 1.64601959228515625000e+02) (21, 6.14505126953125000000e+02) (22, 6.14456298828125000000e+02) (23, 3.74242675781250000000e+02) (24, -3.74133209228515625000e+02) (25, -3.73989898681640625000e+02) (26, -3.73997314453125000000e+02) (27, -3.73892761230468750000e+02) (28, 1.64653900146484375000e+02) (29, 6.14594970703125000000e+02) (30, 6.14565124511718750000e+02) (31, 6.14587402343750000000e+02) (32, -3.74075042724609375000e+02) (33, -3.74107727050781250000e+02) (34, -3.73997161865234375000e+02) (35, -3.73789245605468750000e+02) (36, 1.64510131835937500000e+02) (37, 6.14505126953125000000e+02) (38, 3.74265258789062500000e+02) (39, 3.74301208496093750000e+02) (40, -3.74132049560546875000e+02) (41, -3.74036407470703125000e+02) (42, -3.74110931396484375000e+02) (43, -1.64433166503906250000e+02) (44, 6.86139755249023437500e+01) (45, 3.74417785644531250000e+02) (46, 3.74410217285156250000e+02) (47, 3.74261657714843750000e+02) (48, -3.74005096435546875000e+02) (49, -3.74053924560546875000e+02) (50, -1.64341033935546875000e+02) (51, 3.74134582519531250000e+02) (52, 1.64471649169921875000e+02) (53, 1.64407592773437500000e+02) (54, 3.74311889648437500000e+02) (55, 6.14408752441406250000e+02) (56, -3.74137420654296875000e+02) (57, -3.74116699218750000000e+02) (58, -6.83929138183593750000e+01) (59, -1.64350494384765625000e+02) (60, 1.64376647949218750000e+02) (61, 3.74282684326171875000e+02) (62, 3.74405364990234375000e+02) (63, 3.74323120117187500000e+02) (64, 3.74320343017578125000e+02) (0, -1.09471215820312500000e+03) (1, -1.09465576171875000000e+03) (2, -1.09470825195312500000e+03) (3, -6.14437133789062500000e+02) (4, 1.09464709472656250000e+03) (5, 6.14542114257812500000e+02) (6, 1.09467309570312500000e+03) (7, 1.09475610351562500000e+03) (8, -1.09480383300781250000e+03) (9, -1.09479101562500000000e+03) (10, -6.14343933105468750000e+02) (11, -8.54711791992187500000e+02) (12, -6.14276794433593750000e+02) (13, 1.09478332519531250000e+03) (14, 1.09479174804687500000e+03) (15, 1.09474829101562500000e+03) (16, -1.09468725585937500000e+03) (17, -1.09480786132812500000e+03) (18, -1.09472607421875000000e+03) (19, -8.54901367187500000000e+02) (20, 6.14600097656250000000e+02) (21, 1.09474938964843750000e+03) (22, 1.09464196777343750000e+03) (23, 1.09477026367187500000e+03) (24, -1.09483093261718750000e+03) (25, -1.09463806152343750000e+03) (26, -1.09467700195312500000e+03) (27, -1.09477954101562500000e+03) (28, 6.14663330078125000000e+02) (29, 1.09468371582031250000e+03) (30, 1.09477844238281250000e+03) (31, 1.09472729492187500000e+03) (32, -1.09480639648437500000e+03) (33, -1.09476416015625000000e+03) (34, -1.09471630859375000000e+03) (35, -1.09479370117187500000e+03) (36, 6.14559204101562500000e+02) (37, 1.09479113769531250000e+03) (38, 1.09479675292968750000e+03) (39, 1.09473144531250000000e+03) (40, -1.09483422851562500000e+03) (41, -1.09475354003906250000e+03) (42, -1.09472033691406250000e+03) (43, -1.09481176757812500000e+03) (44, 6.14522583007812500000e+02) (45, 1.09470593261718750000e+03) (46, 1.09477087402343750000e+03) (47, 1.09481127929687500000e+03) (48, -1.09473632812500000000e+03) (49, -1.09478955078125000000e+03) (50, -1.09465783691406250000e+03) (51, 6.13947021484375000000e+02) (52, 3.73350555419921875000e+02) (53, 8.55157104492187500000e+02) (54, 1.09477563476562500000e+03) (55, 8.55237121582031250000e+02) (56, -1.09465393066406250000e+03) (57, -1.09473571777343750000e+03) (58, -1.09481616210937500000e+03) (59, -8.54949951171875000000e+02) (60, 6.14640808105468750000e+02) (61, 8.55356994628906250000e+02) (62, 1.09467822265625000000e+03) (63, 1.09481042480468750000e+03) (64, 1.09466687011718750000e+03) (0, -1.09467248535156250000e+03) (1, -1.09481774902343750000e+03) (2, -1.09473559570312500000e+03) (3, -6.14343750000000000000e+02) (4, 1.09481347656250000000e+03) (5, 6.14541748046875000000e+02) (6, 1.09475329589843750000e+03) (7, 1.09469433593750000000e+03) (8, -1.09472448730468750000e+03) (9, -1.09469287109375000000e+03) (10, -6.14372802734375000000e+02) (11, -1.09465307617187500000e+03) (12, -8.54890991210937500000e+02) (13, 1.09470092773437500000e+03) (14, 1.09471386718750000000e+03) (15, 1.09475720214843750000e+03) (16, -1.09479138183593750000e+03) (17, -1.09474963378906250000e+03) (18, -1.09475170898437500000e+03) (19, -8.55073791503906250000e+02) (20, 6.14518920898437500000e+02) (21, 1.09468041992187500000e+03) (22, 1.09464208984375000000e+03) (23, 1.09475915527343750000e+03) (24, -1.09477014160156250000e+03) (25, -1.09467565917968750000e+03) (26, -1.09476171875000000000e+03) (27, -1.09480786132812500000e+03) (28, 6.14495361328125000000e+02) (29, 1.09468310546875000000e+03) (30, 1.09469335937500000000e+03) (31, 1.09479882812500000000e+03) (32, -1.09476904296875000000e+03) (33, -1.09467651367187500000e+03) (34, -1.09475122070312500000e+03) (35, -1.09479003906250000000e+03) (36, 6.14646484375000000000e+02) (37, 6.14494812011718750000e+02) (38, 1.09473864746093750000e+03) (39, 1.09469799804687500000e+03) (40, -1.09469091796875000000e+03) (41, -1.09464062500000000000e+03) (42, -1.09478942871093750000e+03) (43, -1.09481298828125000000e+03) (44, 6.14406311035156250000e+02) (45, 1.09475891113281250000e+03) (46, 1.09477868652343750000e+03) (47, 1.09473779296875000000e+03) (48, -1.09482519531250000000e+03) (49, -1.09480749511718750000e+03) (50, -1.09470385742187500000e+03) (51, 6.13977050781250000000e+02) (52, 3.73491638183593750000e+02) (53, 8.55111328125000000000e+02) (54, 1.09479443359375000000e+03) (55, 6.14630065917968750000e+02) (56, -1.09473730468750000000e+03) (57, -1.09480163574218750000e+03) (58, -1.09467065429687500000e+03) (59, -8.55001342773437500000e+02) (60, 6.14427368164062500000e+02) (61, 8.55217529296875000000e+02) (62, 1.09469848632812500000e+03) (63, 1.09478112792968750000e+03) (64, 1.09481506347656250000e+03) (0, -3.73824890136718750000e+02) (1, -6.83785400390625000000e+01) (2, -1.64023986816406250000e+02) (3, -6.82060852050781250000e+01) (4, 6.14626525878906250000e+02) (5, 6.91120452880859375000e+01) (6, 1.64687805175781250000e+02) (7, 1.64684265136718750000e+02) (8, -3.73929260253906250000e+02) (9, -3.73857971191406250000e+02) (10, -1.64008758544921875000e+02) (11, -3.73754394531250000000e+02) (12, -2.83528976440429687500e+01) (13, 1.64648071289062500000e+02) (14, 6.14891296386718750000e+02) (15, 3.74620513916015625000e+02) (16, -3.73788513183593750000e+02) (17, -1.64412719726562500000e+02) (18, -3.73813842773437500000e+02) (19, -3.73850189208984375000e+02) (20, 3.74508972167968750000e+02) (21, 8.54984436035156250000e+02) (22, 3.74490203857421875000e+02) (23, 3.74476043701171875000e+02) (24, -3.73912872314453125000e+02) (25, -1.64415466308593750000e+02) (26, -3.73885894775390625000e+02) (27, -6.13578918457031250000e+02) (28, 3.74825317382812500000e+02) (29, 3.74504150390625000000e+02) (30, 3.74533843994140625000e+02) (31, 8.55018798828125000000e+02) (32, -3.73948120117187500000e+02) (33, -1.64150512695312500000e+02) (34, -1.64268371582031250000e+02) (35, -6.13541625976562500000e+02) (36, 3.75344940185546875000e+02) (37, 3.74642974853515625000e+02) (38, 1.64603515625000000000e+02) (39, 1.64632659912109375000e+02) (40, -1.64448181152343750000e+02) (41, -6.84116897583007812500e+01) (42, -1.64529144287109375000e+02) (43, -3.73827880859375000000e+02) (44, 6.89250564575195312500e+01) (45, 3.74652709960937500000e+02) (46, 1.64624664306640625000e+02) (47, 1.64789581298828125000e+02) (48, -1.64340606689453125000e+02) (49, -1.64346221923828125000e+02) (50, -6.84532546997070312500e+01) (51, 6.88837814331054687500e+01) (52, 1.64867034912109375000e+02) (53, 1.64730407714843750000e+02) (54, 8.55059204101562500000e+02) (55, 3.74613677978515625000e+02) (56, -3.73918243408203125000e+02) (57, -6.85132293701171875000e+01) (58, -1.64133880615234375000e+02) (59, -1.64233215332031250000e+02) (60, 3.74560546875000000000e+02) (61, 3.74558227539062500000e+02) (62, 3.74637481689453125000e+02) (63, 1.64708374023437500000e+02) (64, 1.64678955078125000000e+02) (0, 3.74233123779296875000e+02) (1, 3.74220367431640625000e+02) (2, 6.14196533203125000000e+02) (3, 3.74204833984375000000e+02) (4, -3.74255737304687500000e+02) (5, -6.14459106445312500000e+02) (6, -3.74049865722656250000e+02) (7, -3.73953826904296875000e+02) (8, 3.74308837890625000000e+02) (9, 3.74234893798828125000e+02) (10, 6.14591369628906250000e+02) (11, 6.13848388671875000000e+02) (12, 3.74208465576171875000e+02) (13, -6.14571105957031250000e+02) (14, -6.14479431152343750000e+02) (15, -6.14510925292968750000e+02) (16, 3.74308349609375000000e+02) (17, 3.74249114990234375000e+02) (18, 3.74335418701171875000e+02) (19, 3.74243652343750000000e+02) (20, -1.64770629882812500000e+02) (21, -6.14485229492187500000e+02) (22, -3.74043029785156250000e+02) (23, -3.74064849853515625000e+02) (24, 6.14232360839843750000e+02) (25, 3.74333923339843750000e+02) (26, 6.14295043945312500000e+02) (27, 6.13747375488281250000e+02) (28, -1.64689758300781250000e+02) (29, -6.14484863281250000000e+02) (30, -3.74067443847656250000e+02) (31, -3.73995086669921875000e+02) (32, 3.74310729980468750000e+02) (33, 3.74351654052734375000e+02) (34, 3.74362396240234375000e+02) (35, 8.53717651367187500000e+02) (36, -1.64722167968750000000e+02) (37, -6.14497924804687500000e+02) (38, -3.73990020751953125000e+02) (39, -3.74151794433593750000e+02) (40, 3.74312225341796875000e+02) (41, 3.74360198974609375000e+02) (42, 3.74291168212890625000e+02) (43, 6.14118835449218750000e+02) (44, -1.64625579833984375000e+02) (45, -3.73953552246093750000e+02) (46, -3.74087432861328125000e+02) (47, -3.74055664062500000000e+02) (48, 3.74248229980468750000e+02) (49, 3.74200683593750000000e+02) (50, 6.14270751953125000000e+02) (51, -3.73808654785156250000e+02) (52, -1.64505371093750000000e+02) (53, -6.14512817382812500000e+02) (54, -3.73973052978515625000e+02) (55, -6.14557983398437500000e+02) (56, 3.74196350097656250000e+02) (57, 3.74344573974609375000e+02) (58, 3.74206481933593750000e+02) (59, 3.74308654785156250000e+02) (60, -3.74105590820312500000e+02) (61, -3.74048828125000000000e+02) (62, -3.74074310302734375000e+02) (63, -3.73982696533203125000e+02) (64, -3.74085021972656250000e+02) (0, -1.09478149414062500000e+03) (1, -1.09470068359375000000e+03) (2, -8.54881469726562500000e+02) (3, -6.14332214355468750000e+02) (4, 8.55069335937500000000e+02) (5, 1.09478283691406250000e+03) (6, 1.09468896484375000000e+03) (7, 1.09470312500000000000e+03) (8, -1.09478271484375000000e+03) (9, -1.09477893066406250000e+03) (10, -1.09478918457031250000e+03) (11, -8.54918151855468750000e+02) (12, -6.14274536132812500000e+02) (13, 1.09477661132812500000e+03) (14, 1.09474560546875000000e+03) (15, 1.09476794433593750000e+03) (16, -1.09473950195312500000e+03) (17, -1.09483142089843750000e+03) (18, -1.09479809570312500000e+03) (19, -6.14305053710937500000e+02) (20, 1.09481701660156250000e+03) (21, 1.09468798828125000000e+03) (22, 1.09480029296875000000e+03) (23, 1.09477380371093750000e+03) (24, -1.09476220703125000000e+03) (25, -1.09474780273437500000e+03) (26, -1.09464794921875000000e+03) (27, -8.54852966308593750000e+02) (28, 1.09479943847656250000e+03) (29, 1.09479077148437500000e+03) (30, 1.09467810058593750000e+03) (31, 1.09465222167968750000e+03) (32, -1.09474426269531250000e+03) (33, -1.09464331054687500000e+03) (34, -1.09468640136718750000e+03) (35, -8.54842468261718750000e+02) (36, 6.14632446289062500000e+02) (37, 1.09463696289062500000e+03) (38, 1.09468969726562500000e+03) (39, 1.09482568359375000000e+03) (40, -1.09477636718750000000e+03) (41, -1.09473400878906250000e+03) (42, -1.09479223632812500000e+03) (43, -6.14499694824218750000e+02) (44, 6.14535400390625000000e+02) (45, 1.09478771972656250000e+03) (46, 1.09474670410156250000e+03) (47, 1.09477197265625000000e+03) (48, -1.09467810058593750000e+03) (49, -1.09468579101562500000e+03) (50, -1.09473950195312500000e+03) (51, 6.14080627441406250000e+02) (52, 3.73201568603515625000e+02) (53, 8.55033752441406250000e+02) (54, 1.09471264648437500000e+03) (55, 1.09470874023437500000e+03) (56, -1.09468701171875000000e+03) (57, -1.09476977539062500000e+03) (58, -1.09478405761718750000e+03) (59, -1.09472204589843750000e+03) (60, 8.55094848632812500000e+02) (61, 1.09472839355468750000e+03) (62, 1.09476464843750000000e+03) (63, 1.09474560546875000000e+03) (64, 1.09471948242187500000e+03) (0, -3.73992309570312500000e+02) (1, -3.73874389648437500000e+02) (2, -1.64133544921875000000e+02) (3, -3.73539794921875000000e+02) (4, 6.14684143066406250000e+02) (5, 1.64899871826171875000e+02) (6, 1.64734069824218750000e+02) (7, 8.54942260742187500000e+02) (8, -3.73913970947265625000e+02) (9, -3.73854370117187500000e+02) (10, -3.73757995605468750000e+02) (11, -3.74146545410156250000e+02) (12, -1.63932556152343750000e+02) (13, 3.74504669189453125000e+02) (14, 8.55056701660156250000e+02) (15, 8.55067504882812500000e+02) (16, -3.73843750000000000000e+02) (17, -1.64317993164062500000e+02) (18, -3.73791381835937500000e+02) (19, -3.73782958984375000000e+02) (20, 1.64918518066406250000e+02) (21, 8.54943969726562500000e+02) (22, 8.55025512695312500000e+02) (23, 8.54938598632812500000e+02) (24, -3.73866760253906250000e+02) (25, -1.64485076904296875000e+02) (26, -3.73901367187500000000e+02) (27, -3.73772796630859375000e+02) (28, 1.64814208984375000000e+02) (29, 6.14896606445312500000e+02) (30, 3.74555664062500000000e+02) (31, 8.54946411132812500000e+02) (32, -3.73892486572265625000e+02) (33, -3.73862945556640625000e+02) (34, -3.73833770751953125000e+02) (35, -6.13628417968750000000e+02) (36, 3.74462097167968750000e+02) (37, 3.74548492431640625000e+02) (38, 1.64680908203125000000e+02) (39, 1.64778381347656250000e+02) (40, -1.64339050292968750000e+02) (41, -1.64352355957031250000e+02) (42, -1.64339294433593750000e+02) (43, -6.13635986328125000000e+02) (44, 6.89292755126953125000e+01) (45, 3.74633697509765625000e+02) (46, 1.64598602294921875000e+02) (47, 1.64738555908203125000e+02) (48, -1.64464904785156250000e+02) (49, -1.64349822998046875000e+02) (50, -1.64401428222656250000e+02) (51, 1.64632690429687500000e+02) (52, 3.74066467285156250000e+02) (53, 1.64664215087890625000e+02) (54, 8.54992675781250000000e+02) (55, 3.74615783691406250000e+02) (56, -3.73854064941406250000e+02) (57, -1.64310363769531250000e+02) (58, -6.82114715576171875000e+01) (59, -3.73240447998046875000e+02) (60, 6.14870971679687500000e+02) (61, 1.64623382568359375000e+02) (62, 3.74625823974609375000e+02) (63, 1.64631011962890625000e+02) (64, 1.64732513427734375000e+02) (0, 3.74280731201171875000e+02) (1, 3.74256225585937500000e+02) (2, 3.74250366210937500000e+02) (3, 1.65117919921875000000e+02) (4, -3.73998504638671875000e+02) (5, -3.73939849853515625000e+02) (6, -3.73987579345703125000e+02) (7, -3.74016845703125000000e+02) (8, 3.74228332519531250000e+02) (9, 3.74377838134765625000e+02) (10, 3.74338775634765625000e+02) (11, 6.87485580444335937500e+01) (12, 3.73799407958984375000e+02) (13, -1.64418060302734375000e+02) (14, -3.74080657958984375000e+02) (15, -3.73975006103515625000e+02) (16, 3.74214752197265625000e+02) (17, 3.74313934326171875000e+02) (18, 3.74204711914062500000e+02) (19, 1.64829559326171875000e+02) (20, -6.14064514160156250000e+02) (21, -3.73991271972656250000e+02) (22, -3.74138671875000000000e+02) (23, -3.74148498535156250000e+02) (24, 3.74293090820312500000e+02) (25, 3.74299011230468750000e+02) (26, 3.74348327636718750000e+02) (27, 3.74470428466796875000e+02) (28, -6.14028564453125000000e+02) (29, -3.73956329345703125000e+02) (30, -3.74081817626953125000e+02) (31, -3.73994079589843750000e+02) (32, 3.74252563476562500000e+02) (33, 3.74321228027343750000e+02) (34, 3.74316589355468750000e+02) (35, 3.74355804443359375000e+02) (36, -3.73973510742187500000e+02) (37, -3.74058868408203125000e+02) (38, -3.73997985839843750000e+02) (39, -3.74133056640625000000e+02) (40, 3.74271636962890625000e+02) (41, 3.74293457031250000000e+02) (42, 3.74210388183593750000e+02) (43, 3.74414184570312500000e+02) (44, -6.84480209350585937500e+01) (45, -3.74058135986328125000e+02) (46, -3.74097778320312500000e+02) (47, -3.74125854492187500000e+02) (48, 3.74208465576171875000e+02) (49, 3.74259613037109375000e+02) (50, 3.74310668945312500000e+02) (51, -3.73625152587890625000e+02) (52, -3.73851196289062500000e+02) (53, -3.74015869140625000000e+02) (54, -3.74098114013671875000e+02) (55, -3.74014312744140625000e+02) (56, 3.74235809326171875000e+02) (57, 3.74202850341796875000e+02) (58, 3.74259704589843750000e+02) (59, 3.74301544189453125000e+02) (60, -1.64274932861328125000e+02) (61, -1.64356750488281250000e+02) (62, -3.74080383300781250000e+02) (63, -3.74076599121093750000e+02) (64, -3.74076599121093750000e+02) (0, -6.14377441406250000000e+02) (1, -3.74050445556640625000e+02) (2, -1.64484130859375000000e+02) (3, -1.64199218750000000000e+02) (4, 6.14451721191406250000e+02) (5, 3.74795837402343750000e+02) (6, 3.74409820556640625000e+02) (7, 3.74386444091796875000e+02) (8, -3.74048034667968750000e+02) (9, -3.74089569091796875000e+02) (10, -3.73990264892578125000e+02) (11, -3.73405822753906250000e+02) (12, -6.13004455566406250000e+02) (13, 6.14584045410156250000e+02) (14, 6.14414611816406250000e+02) (15, 6.14584594726562500000e+02) (16, -3.74040649414062500000e+02) (17, -3.74082489013671875000e+02) (18, -3.74129791259765625000e+02) (19, -3.74103851318359375000e+02) (20, 1.64931457519531250000e+02) (21, 6.14556030273437500000e+02) (22, 6.14491577148437500000e+02) (23, 3.74363647460937500000e+02) (24, -3.74119598388671875000e+02) (25, -3.74142211914062500000e+02) (26, -3.74001647949218750000e+02) (27, -6.12946716308593750000e+02) (28, 1.64548431396484375000e+02) (29, 6.14421875000000000000e+02) (30, 6.14446655273437500000e+02) (31, 3.74307678222656250000e+02) (32, -3.74030670166015625000e+02) (33, -3.74045654296875000000e+02) (34, -3.73974151611328125000e+02) (35, -6.13256591796875000000e+02) (36, 3.74676239013671875000e+02) (37, 3.74381011962890625000e+02) (38, 3.74350738525390625000e+02) (39, 3.74303100585937500000e+02) (40, -3.74139801025390625000e+02) (41, -3.74070770263671875000e+02) (42, -3.74081634521484375000e+02) (43, -3.73980712890625000000e+02) (44, 6.84736633300781250000e+01) (45, 3.74307464599609375000e+02) (46, 3.74329956054687500000e+02) (47, 6.14563354492187500000e+02) (48, -3.74006286621093750000e+02) (49, -3.74031066894531250000e+02) (50, -3.74142608642578125000e+02) (51, 6.13539794921875000000e+02) (52, 3.73663604736328125000e+02) (53, 3.74323486328125000000e+02) (54, 6.14591003417968750000e+02) (55, 6.14496093750000000000e+02) (56, -3.74049987792968750000e+02) (57, -3.74012756347656250000e+02) (58, -1.64458190917968750000e+02) (59, -3.73974548339843750000e+02) (60, 3.74383636474609375000e+02) (61, 3.74338226318359375000e+02) (62, 3.74278503417968750000e+02) (63, 3.74298339843750000000e+02) (64, 3.74237915039062500000e+02) (0, 2.88888893127441406250e+01) (1, 1.23094663619995117188e+01) (2, 2.27920389175415039062e+00) (3, 5.30301856994628906250e+00) (4, -4.50653028488159179688e+00) (5, -2.13078165054321289062e+00) (6, -1.85541975498199462891e+00) (7, -1.95738446712493896484e+00) (8, 1.23523378372192382812e+01) (9, 5.12389755249023437500e+00) (10, 1.23600263595581054688e+01) (11, 1.17701082229614257812e+01) (12, 1.20636186599731445312e+01) (13, -7.39410221576690673828e-02) (14, -4.65727329254150390625e+00) (15, -1.16223115921020507812e+01) (16, 2.34870243072509765625e+00) (17, 2.86595764160156250000e+01) (18, 2.22349309921264648438e+00) (19, 1.05047953128814697266e+00) (20, -2.00838613510131835938e+00) (21, -4.72405910491943359375e+00) (22, -4.78872966766357421875e+00) (23, -1.18700227737426757812e+01) (24, 2.89981956481933593750e+01) (25, 2.26425504684448242188e+00) (26, 5.07283973693847656250e+00) (27, 5.13024520874023437500e+00) (28, -2.80593223571777343750e+01) (29, -4.65987157821655273438e+00) (30, -4.82815074920654296875e+00) (31, -4.71932983398437500000e+00) (32, 2.88213844299316406250e+01) (33, 2.86830825805664062500e+01) (34, 4.96984386444091796875e+00) (35, 1.04494524002075195312e+00) (36, -4.85857391357421875000e+00) (37, -6.80052042007446289062e-01) (38, -1.16720552444458007812e+01) (39, -4.59697628021240234375e+00) (40, 1.22166910171508789062e+01) (41, 2.86796302795410156250e+01) (42, 5.39056205749511718750e+00) (43, 2.11513519287109375000e+00) (44, -1.14254379272460937500e+01) (45, -1.86536109447479248047e+00) (46, -4.70675086975097656250e+00) (47, -2.81107673645019531250e+01) (48, 2.87665519714355468750e+01) (49, 2.88257179260253906250e+01) (50, 2.89167633056640625000e+01) (51, 2.59326249361038208008e-01) (52, -1.82394611835479736328e+00) (53, -4.97631263732910156250e+00) (54, -1.92344653606414794922e+00) (55, -4.88674545288085937500e+00) (56, 5.17987155914306640625e+00) (57, 2.87164268493652343750e+01) (58, 2.38882637023925781250e+00) (59, 1.11700189113616943359e+00) (60, -1.83875596523284912109e+00) (61, -7.94990181922912597656e-01) (62, -1.96331417560577392578e+00) (63, -4.64309406280517578125e+00) (64, -4.73243951797485351562e+00) (0, -1.09479040527343750000e+03) (1, -1.09477636718750000000e+03) (2, -8.54896484375000000000e+02) (3, -8.54972900390625000000e+02) (4, 8.55168151855468750000e+02) (5, 1.09475927734375000000e+03) (6, 1.09479260253906250000e+03) (7, 1.09464868164062500000e+03) (8, -1.09472412109375000000e+03) (9, -1.09478540039062500000e+03) (10, -1.09475781250000000000e+03) (11, -8.54701171875000000000e+02) (12, -8.54184448242187500000e+02) (13, 1.09481909179687500000e+03) (14, 1.09476818847656250000e+03) (15, 1.09464257812500000000e+03) (16, -1.09480334472656250000e+03) (17, -1.09481713867187500000e+03) (18, -1.09479577636718750000e+03) (19, -6.14351501464843750000e+02) (20, 1.09464514160156250000e+03) (21, 1.09483129882812500000e+03) (22, 1.09482946777343750000e+03) (23, 1.09470104980468750000e+03) (24, -1.09464453125000000000e+03) (25, -1.09470361328125000000e+03) (26, -1.09478234863281250000e+03) (27, -6.14371032714843750000e+02) (28, 1.09477099609375000000e+03) (29, 1.09483276367187500000e+03) (30, 1.09471557617187500000e+03) (31, 1.09481506347656250000e+03) (32, -1.09477807617187500000e+03) (33, -1.09482080078125000000e+03) (34, -1.09479760742187500000e+03) (35, -3.74187561035156250000e+02) (36, 1.09477294921875000000e+03) (37, 1.09482934570312500000e+03) (38, 1.09470019531250000000e+03) (39, 1.09468322753906250000e+03) (40, -1.09479052734375000000e+03) (41, -1.09469213867187500000e+03) (42, -1.09475781250000000000e+03) (43, -8.54942199707031250000e+02) (44, 6.14619934082031250000e+02) (45, 1.09464477539062500000e+03) (46, 1.09472924804687500000e+03) (47, 1.09479260253906250000e+03) (48, -1.09480676269531250000e+03) (49, -1.09470092773437500000e+03) (50, -1.09476538085937500000e+03) (51, 6.14569641113281250000e+02) (52, 6.14623168945312500000e+02) (53, 1.09469860839843750000e+03) (54, 1.09473950195312500000e+03) (55, 1.09475463867187500000e+03) (56, -1.09463940429687500000e+03) (57, -1.09467724609375000000e+03) (58, -8.54884643554687500000e+02) (59, -1.09470275878906250000e+03) (60, 1.09478991699218750000e+03) (61, 1.09465991210937500000e+03) (62, 1.09474682617187500000e+03) (63, 1.09464624023437500000e+03) (64, 1.09467358398437500000e+03) (65, -6.80765658617019653320e-02) (66, -6.79435655474662780762e-02) (67, -1.19661889970302581787e-01) (68, 4.06923890113830566406e-01) (69, -1.66381940245628356934e-01) (70, 1.97169989347457885742e-01) (71, -1.05998933315277099609e-01) (72, 2.42152512073516845703e-01) (73, -2.82060056924819946289e-02) (74, -2.19226062297821044922e-01) (75, 6.87621757388114929199e-02) (76, -9.01394039392471313477e-02) (77, -1.24354042112827301025e-01) (78, -1.35324433445930480957e-01) (79, 3.11788946390151977539e-01) (80, 1.55218228697776794434e-01) (81, 1.96466833353042602539e-01) (82, 2.30987235903739929199e-01) (83, 2.04014658927917480469e-01) (84, 3.53988409042358398438e-01) (85, 2.55283296108245849609e-01) (86, 2.05722674727439880371e-01) (87, -2.07086279988288879395e-01) (88, 9.39784720540046691895e-02) (89, 2.68541276454925537109e-01) (90, -2.02436015009880065918e-01) (91, 1.85699328780174255371e-01) (92, 6.18794381618499755859e-01) (93, -3.68415494449436664581e-03) (94, 4.32716518640518188477e-01) (95, 3.33103805780410766602e-01) (96, 2.48744592070579528809e-01) (97, -1.00193455815315246582e-01) (98, 5.31346917152404785156e-01) (99, 1.92728370428085327148e-01) (100, -1.71085625886917114258e-01) (101, 5.61486899852752685547e-01) (102, 4.36990201473236083984e-01) (103, 8.44300612807273864746e-02) (104, -2.24284172058105468750e-01) (105, 2.54977971315383911133e-01) (65, 1.29378527402877807617e-01) (66, 5.60415685176849365234e-01) (67, 1.05849444866180419922e-01) (68, -2.55603790283203125000e-01) (69, 1.75929665565490722656e-01) (70, -2.74622052907943725586e-01) (71, 1.05775728821754455566e-01) (72, 1.55429422855377197266e-01) (73, 5.67721068859100341797e-01) (74, -2.87750452756881713867e-01) (75, 3.74844238281250000000e+02) (76, 8.50873947143554687500e-01) (77, -4.11463171243667602539e-01) (78, 8.17541182041168212891e-02) (79, -3.89979690313339233398e-01) (80, 7.66571879386901855469e-01) (81, 7.89875984191894531250e-02) (82, 8.94759416580200195312e-01) (83, -2.57257342338562011719e-01) (84, -5.66056549549102783203e-01) (85, 1.79183721542358398438e-01) (86, 7.73567974567413330078e-01) (87, -3.23025792837142944336e-01) (88, 7.88555502891540527344e-01) (89, 1.26269131898880004883e-01) (90, 1.67986676096916198730e-01) (91, 1.92225036621093750000e+01) (92, 1.56484037637710571289e-01) (93, 3.78757810592651367188e+00) (94, 5.93173652887344360352e-02) (95, -2.62769073247909545898e-01) (96, -3.77108603715896606445e-01) (97, 3.58257979154586791992e-01) (98, 9.50370281934738159180e-02) (99, 1.34531199932098388672e-01) (100, 2.86950051784515380859e-01) (101, 8.26519548892974853516e-01) (102, 9.24867689609527587891e-02) (103, 8.61974430084228515625e+00) (104, 2.22046881914138793945e-01) (105, -3.59736174345016479492e-01) (65, 8.54751403808593750000e+02) (66, 8.54763000488281250000e+02) (67, 1.09474377441406250000e+03) (68, 6.14250305175781250000e+02) (69, 1.09479003906250000000e+03) (70, 1.09478918457031250000e+03) (71, 8.54808471679687500000e+02) (72, 1.09475512695312500000e+03) (73, 8.54778137207031250000e+02) (74, 8.54844726562500000000e+02) (75, -1.23349452018737792969e+00) (76, 8.54830566406250000000e+02) (77, 8.54753295898437500000e+02) (78, 8.54764404296875000000e+02) (79, 1.09469042968750000000e+03) (80, -1.09481994628906250000e+03) (81, 1.09478369140625000000e+03) (82, -1.09469409179687500000e+03) (83, 1.09483190917968750000e+03) (84, 6.14440063476562500000e+02) (85, 1.09474365234375000000e+03) (86, -1.09478247070312500000e+03) (87, 8.54788330078125000000e+02) (88, -1.09470227050781250000e+03) (89, 1.09476916503906250000e+03) (90, 8.54798950195312500000e+02) (91, 1.64830688476562500000e+02) (92, -1.09476306152343750000e+03) (93, 8.54713195800781250000e+02) (94, 6.14347106933593750000e+02) (95, 1.09478637695312500000e+03) (96, 1.09480102539062500000e+03) (97, 8.54845275878906250000e+02) (98, -8.54667663574218750000e+02) (99, 1.09473339843750000000e+03) (100, 8.54800964355468750000e+02) (101, -8.54712890625000000000e+02) (102, 6.14323364257812500000e+02) (103, -3.74072723388671875000e+02) (104, 1.09477966308593750000e+03) (105, 1.09468872070312500000e+03) (65, 8.54769653320312500000e+02) (66, 8.54775817871093750000e+02) (67, 1.09479309082031250000e+03) (68, 6.14153991699218750000e+02) (69, 1.09481738281250000000e+03) (70, 1.09480749511718750000e+03) (71, 8.54834350585937500000e+02) (72, 1.09475769042968750000e+03) (73, 8.54819580078125000000e+02) (74, 8.54687194824218750000e+02) (75, -1.24900174140930175781e+00) (76, 8.54671630859375000000e+02) (77, 8.54826538085937500000e+02) (78, 8.54813598632812500000e+02) (79, 1.09479174804687500000e+03) (80, -1.09470678710937500000e+03) (81, 1.09471105957031250000e+03) (82, -8.54700195312500000000e+02) (83, 1.09482617187500000000e+03) (84, 6.14546142578125000000e+02) (85, 1.09481506347656250000e+03) (86, -1.09467602539062500000e+03) (87, 8.54804199218750000000e+02) (88, -1.09479248046875000000e+03) (89, 1.09469189453125000000e+03) (90, 8.54756164550781250000e+02) (91, 1.64776733398437500000e+02) (92, -1.09471850585937500000e+03) (93, 8.54828796386718750000e+02) (94, 6.14268188476562500000e+02) (95, 1.09480468750000000000e+03) (96, 1.09473486328125000000e+03) (97, 8.54779174804687500000e+02) (98, -8.54600036621093750000e+02) (99, 1.09477099609375000000e+03) (100, 8.54762084960937500000e+02) (101, -8.54626953125000000000e+02) (102, 6.14386779785156250000e+02) (103, -3.74108978271484375000e+02) (104, 1.09470703125000000000e+03) (105, 1.09479455566406250000e+03) 
